%YAML:1.0
---
opencv_ml_svm:
   format: 3
   svmType: C_SVC
   kernel:
      type: RBF
      gamma: 5.0000000000000000e-01
   C: 1.2500000000000000e+01
   term_criteria: { epsilon:1.1920928955078125e-07, iterations:1000 }
   var_count: 81
   class_count: 26
   class_labels: !!opencv-matrix
      rows: 26
      cols: 1
      dt: i
      data: [ 48, 49, 50, 51, 52, 53, 54, 55, 56, 57, 98, 99, 100, 102,
          103, 104, 107, 108, 110, 112, 114, 115, 116, 117, 121, 122 ]
   sv_total: 122
   support_vectors:
      - [ 5.10685802e-01, 5.43487929e-02, 2.47719400e-02, 0.,
          6.97798848e-01, 2.91656315e-01, 7.95916840e-02, 5.02672372e-03,
          3.87711197e-01, 5.04509687e-01, 0., 0., 0., 6.95697546e-01, 0.,
          0., 0., 5.04509687e-01, 3.37512285e-01, 7.50392582e-03,
          1.06527343e-01, 5.75573862e-01, 5.75573862e-01, 0.,
          1.53416838e-03, 9.18665379e-02, 4.44883436e-01, 4.56399500e-01,
          2.06325233e-01, 2.95523614e-01, 4.00200069e-01, 4.56399500e-01,
          2.52040386e-01, 4.90011387e-02, 1.20622382e-01, 4.56399500e-01,
          5.49829423e-01, 2.91790515e-02, 1.58109963e-02, 2.80046105e-01,
          5.49829423e-01, 8.57621208e-02, 4.19117417e-03, 2.59256829e-02,
          5.49829423e-01, 4.80987698e-01, 8.17045420e-02, 8.44117329e-02,
          1.66215941e-01, 4.80987698e-01, 3.21192086e-01, 1.27572119e-01,
          3.74540627e-01, 4.80987698e-01, 5.07749200e-01, 6.55116886e-03,
          3.44208665e-02, 1.45265296e-01, 5.07749200e-01, 7.68381804e-02,
          7.40342867e-03, 4.39559579e-01, 5.07749200e-01, 5.36095500e-01,
          2.60393739e-01, 5.68342255e-03, 1.00665413e-01, 5.36095500e-01,
          3.08280643e-02, 1.50655990e-03, 2.31360689e-01, 5.36095500e-01,
          5.43114364e-01, 3.08745831e-01, 7.89794698e-03, 8.52772384e-04,
          5.43114364e-01, 1.16449982e-01, 2.48173364e-02, 9.63905826e-03,
          5.43114364e-01 ]
      - [ 5.47779799e-01, 7.24009797e-02, 4.12272364e-02, 0.,
          6.42018855e-01, 2.74839461e-01, 8.77274051e-02, 2.24923566e-02,
          4.36645061e-01, 4.58235174e-01, 0., 0., 1.02176175e-01,
          6.75878108e-01, 0., 0., 3.85305248e-02, 5.60836315e-01,
          3.20838243e-01, 4.11403086e-03, 1.10970028e-01, 5.81248224e-01,
          5.81248224e-01, 0., 6.97724009e-03, 8.11135620e-02,
          4.43396509e-01, 4.51022297e-01, 2.24042431e-01, 3.17640662e-01,
          4.51022297e-01, 4.51022297e-01, 4.57153507e-02, 7.38088191e-02,
          1.52256519e-01, 4.51022297e-01, 5.68834722e-01, 0.,
          1.85127230e-03, 1.30950287e-01, 5.68834722e-01, 0., 0.,
          8.03087205e-02, 5.68834722e-01, 4.03962344e-01, 9.83910784e-02,
          1.34794444e-01, 4.03962344e-01, 4.03962344e-01, 4.03962344e-01,
          2.17269853e-01, 3.24006468e-01, 4.03962344e-01, 5.38568079e-01,
          2.96413782e-03, 1.67965367e-02, 1.27748847e-01, 5.38568079e-01,
          0., 8.58690497e-03, 3.28283995e-01, 5.38568079e-01,
          5.72084367e-01, 0., 9.88520100e-04, 4.86633591e-02,
          5.72084367e-01, 0., 0., 1.00383200e-01, 5.72084367e-01,
          5.26672304e-01, 3.25568557e-01, 4.22973521e-02, 1.19675323e-01,
          5.26672304e-01, 1.96582198e-01, 3.49773392e-02, 2.48016454e-02,
          5.26672304e-01 ]
      - [ 4.14073735e-01, 1.10260263e-01, 4.18468975e-02, 0.,
          5.54327488e-01, 5.54327488e-01, 4.16401103e-02, 3.95927057e-02,
          4.37309384e-01, 4.73762661e-01, 0., 0., 3.63077551e-01,
          6.10085547e-01, 0., 0., 6.74902927e-03, 5.15152633e-01,
          3.34663630e-01, 3.32344137e-03, 6.71451688e-02, 5.76265812e-01,
          5.76265812e-01, 0., 1.89714059e-02, 6.89484105e-02,
          4.56561089e-01, 4.58047718e-01, 2.65440524e-01, 2.84509927e-01,
          4.02379036e-01, 4.58047718e-01, 1.19308524e-01, 6.02905974e-02,
          1.86597273e-01, 4.58047718e-01, 5.59420407e-01, 0., 0.,
          2.35002622e-01, 5.59420407e-01, 0., 0., 1.82734914e-02,
          5.59420407e-01, 4.59635824e-01, 1.09412879e-01, 1.01999514e-01,
          1.26946852e-01, 4.59635824e-01, 4.59635824e-01, 2.10927665e-01,
          2.59552240e-01, 4.59635824e-01, 5.33036232e-01, 1.39998051e-03,
          1.31510952e-02, 1.01982035e-01, 5.33036232e-01, 0.,
          9.02132411e-03, 3.62818241e-01, 5.33036232e-01, 5.73271036e-01,
          0., 0., 7.95618966e-02, 5.73271036e-01, 0., 0., 4.50138785e-02,
          5.73271036e-01, 5.45927167e-01, 2.78362930e-01, 1.59173533e-02,
          0., 5.45927167e-01, 1.49181664e-01, 2.10723057e-02,
          5.94424317e-04, 5.45927167e-01 ]
      - [ 4.42700803e-01, 4.46321443e-02, 4.56202365e-02, 0.,
          6.79553449e-01, 3.81316453e-01, 1.21860607e-02, 1.72826797e-02,
          4.30716217e-01, 3.83326083e-01, 0., 0., 3.34910125e-01,
          7.22659111e-01, 0., 0., 4.17642668e-02, 4.57932860e-01,
          2.43393138e-01, 1.19027577e-03, 4.16962653e-02, 6.39362395e-01,
          6.39362395e-01, 0., 5.35531901e-03, 5.00217937e-02,
          3.35465342e-01, 4.71031249e-01, 1.60111085e-01, 2.90550083e-01,
          4.58109230e-01, 4.71031249e-01, 4.97533940e-02, 3.52525944e-03,
          8.53060782e-02, 4.71031249e-01, 5.63245595e-01, 0.,
          1.31371571e-02, 1.83761522e-01, 5.63245595e-01, 0., 0.,
          9.32622328e-02, 5.63245595e-01, 4.77820307e-01, 2.66013090e-02,
          2.20167134e-02, 2.09342733e-01, 4.77820307e-01, 1.36324733e-01,
          3.16188902e-01, 3.83032829e-01, 4.77820307e-01, 5.75173438e-01,
          2.08530598e-03, 1.91274136e-02, 1.18457168e-01, 5.29752374e-01,
          0., 0., 1.93823889e-01, 5.75173438e-01, 5.73575675e-01, 0.,
          4.50629834e-03, 6.19521327e-02, 5.73575675e-01, 0., 0.,
          5.87115847e-02, 5.73575675e-01, 5.66007793e-01, 1.46756336e-01,
          0., 5.12962118e-02, 5.66007793e-01, 6.31804764e-02,
          6.56742007e-02, 2.79277805e-02, 5.66007793e-01 ]
      - [ 2.88377225e-01, 1.17485270e-01, 2.48933285e-02, 4.49075848e-01,
          5.40859163e-01, 5.40859163e-01, 1.95862964e-01, 5.75084053e-02,
          2.61951983e-01, 4.15205508e-01, 9.44688171e-02, 1.46271335e-02,
          3.78690332e-01, 5.13302863e-01, 5.13302863e-01, 5.58107235e-02,
          3.73924300e-02, 3.72103035e-01, 2.49389708e-01, 2.84760352e-02,
          5.57130799e-02, 5.87958038e-01, 5.87958038e-01, 3.35428238e-01,
          6.62439317e-02, 1.22325718e-01, 3.23675632e-01, 3.91193360e-01,
          3.91193360e-01, 1.73267230e-01, 3.91193360e-01, 3.91193360e-01,
          3.91193360e-01, 7.94614926e-02, 2.03869730e-01, 3.91193360e-01,
          4.50013787e-01, 2.52684802e-01, 1.84900861e-03, 3.32536846e-01,
          4.50013787e-01, 4.50013787e-01, 5.12122922e-02, 9.16450471e-02,
          4.50013787e-01, 4.47501034e-01, 3.01379323e-01, 7.14993551e-02,
          1.32869616e-01, 4.47501034e-01, 3.32535297e-01, 2.23095387e-01,
          3.47578973e-01, 4.47501034e-01, 4.95970398e-01, 2.46970147e-01,
          4.08114567e-02, 1.48498714e-01, 4.95970398e-01, 1.39785931e-01,
          9.87721980e-03, 3.90815943e-01, 4.95970398e-01, 5.41580081e-01,
          3.49656820e-01, 0., 1.16256960e-01, 4.55347061e-01,
          2.19970748e-01, 1.32028265e-02, 1.27654597e-01, 5.41580081e-01,
          5.56924403e-01, 5.41075885e-01, 5.90821542e-03, 1.54657317e-02,
          2.74118006e-01, 7.26677626e-02, 2.51817591e-02, 4.04932490e-03,
          5.56924403e-01 ]
      - [ 5.56782603e-01, 1.16221592e-01, 1.94488075e-02, 0.,
          5.86235464e-01, 3.65386546e-01, 3.63253430e-02, 1.78792281e-03,
          4.37894613e-01, 5.42486250e-01, 0., 0., 0., 5.49380064e-01,
          3.15261334e-01, 0., 2.18730303e-03, 5.46817601e-01,
          3.51490378e-01, 5.14060375e-04, 4.96141464e-02, 5.45891106e-01,
          5.66175520e-01, 0., 3.53594273e-02, 1.17070474e-01,
          4.84593958e-01, 4.53674942e-01, 2.93959290e-01, 1.89853743e-01,
          4.53674942e-01, 4.53674942e-01, 1.63713410e-01, 5.81192747e-02,
          1.39815032e-01, 4.53674942e-01, 5.67722917e-01, 0.,
          1.92288263e-03, 5.34044467e-02, 5.67722917e-01, 1.56258732e-01,
          3.56787816e-03, 1.08571313e-02, 5.67722917e-01, 4.64631230e-01,
          1.33411407e-01, 3.55007760e-02, 8.43367055e-02, 4.64631230e-01,
          3.62727553e-01, 2.83811539e-01, 3.30787957e-01, 4.64631230e-01,
          5.07239223e-01, 0., 1.83152258e-02, 1.54986039e-01,
          5.01133442e-01, 4.15132344e-02, 8.14921875e-03, 4.50633258e-01,
          5.07239223e-01, 5.74344695e-01, 0., 7.65976438e-04,
          2.12735552e-02, 5.74344695e-01, 4.86333705e-02, 1.42125716e-03,
          4.27649170e-02, 5.74344695e-01, 5.35382748e-01, 3.87328178e-01,
          4.95638326e-03, 0., 5.14833212e-01, 7.79074058e-02,
          1.42281037e-02, 3.32401018e-03, 5.35382748e-01 ]
      - [ 4.59851354e-01, 3.73120576e-01, 6.55103102e-02, 0.,
          4.59851354e-01, 4.59851354e-01, 7.76759014e-02, 3.09791719e-03,
          4.59851354e-01, 5.75524986e-01, 2.90309382e-03, 0.,
          1.55777577e-02, 5.75524986e-01, 1.75998136e-02, 0.,
          2.26272270e-03, 5.75524986e-01, 4.62713450e-01, 5.72940195e-03,
          1.01151124e-01, 4.62713450e-01, 4.62713450e-01, 0.,
          1.17164128e-01, 3.39074582e-01, 4.62713450e-01, 3.99381310e-01,
          3.99381310e-01, 3.99381310e-01, 3.99381310e-01, 3.99381310e-01,
          7.81450942e-02, 7.22276941e-02, 1.66295081e-01, 3.99381310e-01,
          5.75686753e-01, 1.88444799e-03, 0., 0., 5.75686753e-01, 0., 0.,
          1.46877184e-03, 5.75686753e-01, 3.88359606e-01, 2.44513482e-01,
          1.50688767e-01, 9.32053104e-02, 3.88359606e-01, 3.88359606e-01,
          3.88359606e-01, 3.88359606e-01, 3.88359606e-01, 5.16675472e-01,
          4.57160780e-03, 6.45486414e-02, 2.58824140e-01, 5.16675472e-01,
          0., 1.05656972e-02, 3.50271672e-01, 5.16675472e-01,
          5.75688422e-01, 0., 0., 0., 5.75688422e-01, 0., 0., 0.,
          5.75688422e-01, 4.81044829e-01, 4.69585866e-01, 1.18447840e-02,
          0., 4.81044829e-01, 2.74143279e-01, 7.17629343e-02,
          5.22801001e-03, 4.81044829e-01 ]
      - [ 4.92815882e-01, 6.49455860e-02, 1.59434136e-02, 1.20148594e-02,
          6.08648419e-01, 4.31331336e-01, 3.91091183e-02, 2.31858389e-03,
          4.34055835e-01, 5.10103106e-01, 0., 0., 3.61944407e-01,
          5.79243004e-01, 0., 0., 9.19074472e-03, 5.17107368e-01,
          3.62223834e-01, 1.96348783e-03, 6.34757206e-02, 5.04288971e-01,
          6.00932777e-01, 0., 2.13491730e-02, 1.00528866e-01,
          4.82463717e-01, 5.12965262e-01, 2.25487724e-01, 2.64820009e-01,
          2.36411139e-01, 5.12965262e-01, 1.12627052e-01, 6.80299103e-02,
          1.06298313e-01, 5.12965262e-01, 5.71715474e-01, 0.,
          3.25499778e-03, 1.15312055e-01, 5.71715474e-01, 0., 0.,
          2.01952588e-02, 5.71715474e-01, 4.23080027e-01, 1.15014337e-01,
          1.01393037e-01, 3.30742449e-01, 4.23080027e-01, 4.23080027e-01,
          2.76220858e-01, 2.65686840e-01, 4.23080027e-01, 5.54944038e-01,
          5.62382396e-03, 3.82603444e-02, 7.52744451e-02, 5.54944038e-01,
          0., 2.03847699e-02, 2.50982970e-01, 5.54944038e-01,
          5.75224817e-01, 0., 2.15614401e-03, 4.00072299e-02,
          5.75224817e-01, 0., 0., 0., 5.75224817e-01, 5.30877292e-01,
          2.84165293e-01, 2.55556684e-02, 1.22576207e-01, 5.30877292e-01,
          2.24177614e-01, 4.96881902e-02, 7.32771633e-03, 5.30877292e-01 ]
      - [ 4.88668114e-01, 7.22052529e-02, 1.19821085e-02, 0.,
          5.70822895e-01, 5.70822895e-01, 4.39767130e-02, 2.97702313e-03,
          3.10686350e-01, 5.51987410e-01, 9.44210310e-03, 0., 0.,
          6.59860313e-01, 6.33310303e-02, 0., 0., 4.99206007e-01,
          3.96900773e-01, 1.22387959e-02, 3.82103845e-02, 4.89355713e-01,
          4.89355713e-01, 3.36789936e-01, 3.33368406e-02, 5.50152361e-02,
          4.89355713e-01, 4.65361834e-01, 2.85487354e-01, 2.16216251e-01,
          4.10648853e-01, 4.65361834e-01, 1.38161153e-01, 7.86863565e-02,
          1.53303176e-01, 4.65361834e-01, 5.61721921e-01, 1.48602771e-02,
          0., 0., 5.61721921e-01, 2.18117848e-01, 0., 0., 5.61721921e-01,
          4.64479983e-01, 1.40801325e-01, 3.57164405e-02, 1.19766816e-01,
          4.64479983e-01, 4.64479983e-01, 2.65649855e-01, 1.62417367e-01,
          4.64479983e-01, 5.29314756e-01, 3.63189587e-03, 3.00688613e-02,
          1.28471583e-01, 5.29314756e-01, 0., 2.00133957e-02,
          3.69281381e-01, 5.29314756e-01, 5.73741317e-01, 0., 0., 0.,
          5.73741317e-01, 8.20588842e-02, 0., 0., 5.73741317e-01,
          5.30079007e-01, 3.72578412e-01, 3.79281654e-03, 0.,
          5.30079007e-01, 1.12638824e-01, 1.54148405e-02, 9.55500465e-04,
          5.30079007e-01 ]
      - [ 4.76216912e-01, 7.06723630e-02, 3.00517231e-02, 0.,
          6.63283408e-01, 4.36576635e-01, 6.83512688e-02, 9.09109600e-03,
          3.54117960e-01, 5.06063700e-01, 0., 0., 0., 6.93452656e-01, 0.,
          0., 0., 5.06063700e-01, 3.53857219e-01, 2.02312414e-02,
          1.28015205e-01, 5.17665446e-01, 5.90325415e-01, 4.46023187e-03,
          5.04294969e-02, 7.86884949e-02, 4.76316005e-01, 4.92613077e-01,
          2.19473124e-01, 2.41248220e-01, 3.77657264e-01, 4.92613077e-01,
          6.27674907e-02, 6.34453073e-02, 1.00587726e-01, 4.92613077e-01,
          5.75688422e-01, 0., 0., 0., 5.75688422e-01, 0., 0., 0.,
          5.75688422e-01, 4.82732862e-01, 1.78700760e-01, 1.61643684e-01,
          1.04541712e-01, 4.82732862e-01, 3.18067044e-01, 1.90813065e-01,
          2.99195021e-01, 4.82732862e-01, 5.70282042e-01, 6.86076179e-04,
          1.09168133e-02, 8.47705752e-02, 5.27250588e-01, 0.,
          8.41495488e-03, 2.41851941e-01, 5.70282042e-01, 5.75688422e-01,
          0., 0., 0., 5.75688422e-01, 0., 0., 0., 5.75688422e-01,
          5.34758627e-01, 2.83311129e-01, 1.67147383e-01, 6.57400414e-02,
          5.34758627e-01, 1.21957026e-01, 6.90657720e-02, 6.77528456e-02,
          5.34758627e-01 ]
      - [ 4.64106172e-01, 7.82450363e-02, 6.92724669e-03, 0.,
          6.46529794e-01, 4.37797695e-01, 4.86990586e-02, 8.27281084e-03,
          3.99840862e-01, 5.15016556e-01, 0., 0., 8.68805423e-02,
          6.88830853e-01, 0., 0., 0., 4.95827943e-01, 3.82680118e-01,
          3.51738255e-03, 8.00279453e-02, 5.37741423e-01, 5.93608856e-01,
          0., 7.67744984e-03, 1.07558124e-01, 4.33643728e-01,
          4.90320772e-01, 2.68165886e-01, 1.40580252e-01, 3.78159314e-01,
          4.90320772e-01, 1.51896417e-01, 6.92457706e-02, 1.06356047e-01,
          4.90320772e-01, 5.56938052e-01, 0., 0., 1.83106437e-01,
          5.56938052e-01, 1.74271509e-01, 0., 0., 5.56938052e-01,
          4.54124451e-01, 1.31978825e-01, 9.23205540e-02, 1.87114179e-01,
          4.54124451e-01, 3.73603493e-01, 1.77411512e-01, 3.80485475e-01,
          4.54124451e-01, 5.48522174e-01, 1.16277137e-03, 1.70174427e-02,
          1.14003561e-01, 5.48522174e-01, 2.72425544e-02, 6.45758817e-03,
          2.78963983e-01, 5.48522174e-01, 5.72816551e-01, 0., 0.,
          7.07441345e-02, 5.72816551e-01, 7.01350644e-02, 0., 0.,
          5.72816551e-01, 5.37734032e-01, 3.31983328e-01, 8.80225189e-03,
          2.09505893e-02, 5.37734032e-01, 1.26146749e-01, 2.19034851e-02,
          5.84011478e-03, 5.37734032e-01 ]
      - [ 5.26096523e-01, 1.67298704e-01, 2.15846095e-02, 0.,
          5.26096523e-01, 5.26096523e-01, 3.11861206e-02, 1.08030334e-03,
          3.67402852e-01, 5.75136960e-01, 0., 0., 0., 5.75136960e-01,
          4.36964482e-02, 0., 0., 5.75136960e-01, 3.25227857e-01,
          9.45192820e-04, 4.00996767e-02, 5.33377707e-01, 5.33377707e-01,
          0., 2.38553118e-02, 1.82337224e-01, 5.33377707e-01,
          3.97007853e-01, 3.97007853e-01, 3.97007853e-01, 3.97007853e-01,
          3.97007853e-01, 1.86924204e-01, 4.92839515e-02, 1.13898970e-01,
          3.97007853e-01, 5.75384974e-01, 2.75050406e-03, 0.,
          1.14733372e-02, 5.75384974e-01, 3.01858801e-02, 0.,
          5.93677745e-04, 5.75384974e-01, 3.98365349e-01, 1.38812602e-01,
          3.80422436e-02, 1.52100772e-01, 3.98365349e-01, 3.98365349e-01,
          3.98365349e-01, 3.98365349e-01, 3.98365349e-01, 5.16101718e-01,
          3.86291021e-03, 4.58979905e-02, 2.67727524e-01, 5.16101718e-01,
          0., 7.73963891e-03, 3.49146634e-01, 5.16101718e-01,
          5.75465620e-01, 2.38425713e-02, 0., 5.52132865e-03,
          5.75465620e-01, 1.20850820e-02, 0., 5.14625851e-03,
          5.75465620e-01, 5.09048641e-01, 3.66725355e-01, 7.40293739e-03,
          0., 5.09048641e-01, 2.82918483e-01, 5.41945621e-02,
          1.54702889e-03, 5.09048641e-01 ]
      - [ 8.00563954e-03, 2.72792876e-01, 4.78604376e-01, 4.78604376e-01,
          4.78604376e-01, 4.78604376e-01, 6.70013130e-02, 1.37201813e-03,
          0., 1.46885554e-03, 5.42183630e-02, 9.98841301e-02,
          5.69594264e-01, 5.69594264e-01, 5.69594264e-01, 8.96899402e-02,
          6.03869325e-03, 0., 0., 0., 4.77400376e-03, 5.56358099e-01,
          5.84404171e-01, 5.84404171e-01, 3.93809751e-02, 0., 0.,
          3.75082612e-01, 3.75082612e-01, 3.60224456e-01, 3.75082612e-01,
          3.75082612e-01, 3.75082612e-01, 5.94321303e-02, 1.37248501e-01,
          3.75082612e-01, 4.31495905e-01, 2.31142163e-01, 2.62655597e-02,
          4.31495905e-01, 4.31495905e-01, 4.31495905e-01, 5.82895391e-02,
          8.50396752e-02, 4.31495905e-01, 4.25152540e-01, 2.83647388e-01,
          4.61840518e-02, 4.25152540e-01, 4.25152540e-01, 4.25152540e-01,
          2.89379749e-02, 9.24840569e-02, 4.25152540e-01, 5.71739495e-01,
          5.01381040e-01, 0., 0., 3.57256494e-02, 0., 2.50748964e-03,
          2.96400309e-01, 5.71739495e-01, 5.69815874e-01, 5.55435002e-01,
          2.94917705e-03, 0., 3.89528200e-02, 0., 0., 1.86803430e-01,
          5.69815874e-01, 5.60411394e-01, 5.60411394e-01, 4.65709791e-02,
          1.17726894e-02, 3.02771013e-02, 0., 0., 2.21352056e-01,
          5.60411394e-01 ]
      - [ 1.56190902e-01, 5.15850067e-01, 3.57229918e-01, 2.07202494e-01,
          5.15850067e-01, 5.15850067e-01, 4.00319621e-02, 0., 0.,
          4.05100323e-02, 1.94631189e-01, 1.64627582e-01, 9.36380923e-02,
          9.56589878e-01, 0., 0., 0., 0., 0., 0., 0., 4.62964505e-01,
          8.81401837e-01, 0., 0., 0., 0., 4.56229359e-01, 4.56229359e-01,
          2.48959467e-01, 1.72615349e-01, 4.56229359e-01, 2.58663774e-01,
          6.27786964e-02, 1.53927887e-02, 4.56229359e-01, 5.75403094e-01,
          2.05709320e-02, 1.02082249e-02, 2.14663018e-02, 5.75403094e-01,
          0., 0., 0., 5.75403094e-01, 5.62206209e-01, 1.85266361e-02,
          3.32298800e-02, 2.11449683e-01, 5.62206209e-01, 0., 0., 0.,
          5.62206209e-01, 6.97166622e-01, 0., 0., 0., 1.41041189e-01, 0.,
          2.44363453e-02, 2.16385387e-02, 6.97166622e-01, 6.86883867e-01,
          0., 0., 0., 2.22540230e-01, 0., 0., 0., 6.86883867e-01,
          6.67785704e-01, 2.78305970e-02, 2.90495548e-02, 7.83381891e-03,
          3.15876424e-01, 0., 0., 0., 6.67785704e-01 ]
      - [ 1.57195628e-01, 5.15949368e-01, 5.15949368e-01, 8.53141323e-02,
          5.15949368e-01, 3.99250954e-01, 6.95395470e-02, 3.16462247e-03,
          0., 0., 2.48051003e-01, 4.96507645e-01, 5.48855215e-03,
          8.26842964e-01, 0., 0., 0., 0., 0., 0., 0., 0., 9.95024860e-01,
          0., 0., 0., 0., 4.64273185e-01, 4.64273185e-01, 2.53857970e-01,
          2.11554557e-01, 4.64273185e-01, 1.46033108e-01, 4.99304384e-02,
          1.21022053e-02, 4.64273185e-01, 5.51933408e-01, 3.32343276e-03,
          5.97662944e-03, 2.69804507e-01, 5.51933408e-01, 3.32099764e-04,
          0., 8.80654901e-02, 5.51933408e-01, 5.73386610e-01,
          6.34435192e-03, 0., 2.46982072e-02, 5.76820135e-01,
          5.07582165e-02, 0., 8.38053413e-03, 5.73977053e-01,
          6.43402576e-01, 0., 0., 4.03419100e-02, 4.04666275e-01,
          2.38434077e-04, 2.78604310e-03, 1.58921313e-02, 6.43402576e-01,
          5.54412723e-01, 0., 0., 5.49809486e-02, 5.54412723e-01,
          6.76853815e-05, 0., 2.63287455e-01, 5.54412723e-01,
          5.75435340e-01, 1.67810880e-02, 0., 4.45348816e-03,
          5.75435340e-01, 9.15253256e-03, 0., 2.21668761e-02,
          5.75435340e-01 ]
      - [ 7.31264874e-02, 2.29224309e-01, 5.32194793e-01, 2.93580979e-01,
          5.32194793e-01, 5.32194793e-01, 3.01707350e-02, 0., 0., 0.,
          2.04659626e-03, 6.13978924e-03, 1.67521879e-01, 9.80871975e-01,
          0., 0., 0., 0., 0., 0., 5.37507795e-03, 3.56569469e-01,
          9.29278314e-01, 0., 0., 0., 0., 5.15065551e-01, 1.46177307e-01,
          3.03470671e-01, 1.13618821e-01, 5.15065551e-01, 2.68945336e-01,
          1.65920965e-02, 0., 5.15065551e-01, 5.72061062e-01,
          4.06111241e-04, 1.21833384e-03, 1.11912109e-01, 5.72061062e-01,
          0., 0., 0., 5.72061062e-01, 5.63441932e-01, 2.60789208e-02,
          4.59619686e-02, 1.97940558e-01, 5.63441932e-01, 0., 0., 0.,
          5.63441932e-01, 7.04615593e-01, 0., 0., 0., 0., 0., 0., 0.,
          7.04615593e-01, 7.04615593e-01, 0., 0., 0., 0., 0., 0., 0.,
          7.04615593e-01, 7.03984261e-01, 3.20640951e-02, 2.75099836e-02,
          0., 0., 0., 0., 0., 7.03984261e-01 ]
      - [ 1.87428430e-01, 5.15024483e-01, 3.89701784e-01, 8.33118483e-02,
          5.15024483e-01, 5.15024483e-01, 7.18892142e-02, 0., 0.,
          5.31507134e-02, 3.04848671e-01, 2.28001341e-01, 2.95245927e-02,
          8.89518917e-01, 2.26420984e-01, 0., 0., 0., 0., 0., 0.,
          3.68991159e-02, 9.93662536e-01, 3.68938260e-02, 0., 0., 0.,
          4.50729042e-01, 4.50729042e-01, 3.06845307e-01, 4.65248749e-02,
          4.50729042e-01, 2.87260354e-01, 6.12032264e-02, 1.69769973e-02,
          4.50729042e-01, 5.67535877e-01, 6.27400279e-02, 1.26828449e-02,
          1.62255834e-03, 5.67535877e-01, 1.54732347e-01, 0., 0.,
          5.67535877e-01, 5.75097382e-01, 1.72242410e-02, 2.00475212e-02,
          2.59617716e-02, 5.75097382e-01, 2.59580500e-02, 0., 0.,
          5.75097382e-01, 6.96754098e-01, 2.63280235e-02, 0., 0.,
          1.43712938e-01, 0., 1.58599839e-02, 2.26724893e-02,
          6.96754098e-01, 6.91128850e-01, 1.18401662e-01, 0., 0.,
          1.54154629e-01, 0., 0., 0., 6.91128850e-01, 7.04247832e-01,
          2.65425760e-02, 1.39654996e-02, 0., 1.18516600e-02, 0., 0., 0.,
          7.04247832e-01 ]
      - [ 1.52960151e-01, 4.12742108e-01, 4.48164999e-01, 4.48164999e-01,
          4.48164999e-01, 4.45814282e-01, 2.15117410e-02, 1.36058044e-03,
          0., 2.57772487e-02, 8.05487856e-02, 1.48362577e-01,
          8.63826796e-02, 9.76541042e-01, 0., 0., 0., 0., 0.,
          1.01890450e-03, 1.88723002e-02, 4.38011028e-02, 9.93886292e-01,
          0., 0., 0., 0., 4.95028079e-01, 2.99923271e-01, 2.80930668e-01,
          2.63336629e-01, 4.95028079e-01, 1.46052435e-01, 1.39000993e-02,
          1.22747114e-02, 4.95028079e-01, 5.75614214e-01, 9.20753367e-03,
          1.10404352e-02, 7.08622811e-03, 5.75614214e-01, 0., 0., 0.,
          5.75614214e-01, 5.74632883e-01, 2.02981420e-02, 4.95612882e-02,
          2.73028295e-02, 5.74632883e-01, 0., 0., 6.26540231e-03,
          5.74632883e-01, 7.04548419e-01, 0., 0., 0., 0., 0., 0.,
          1.37854908e-02, 7.04548419e-01, 7.04615593e-01, 0., 0., 0., 0.,
          0., 0., 0., 7.04615593e-01, 7.04114795e-01, 2.22311225e-02,
          2.58312412e-02, 0., 0., 0., 0., 1.59536619e-02, 7.04114795e-01 ]
      - [ 2.59763271e-01, 4.44830030e-01, 4.44830030e-01, 3.52218181e-01,
          4.44830030e-01, 4.44830030e-01, 1.11595675e-01, 8.56079068e-03,
          1.67064703e-04, 0., 7.50322565e-02, 2.25096747e-01,
          2.03801290e-04, 9.66467857e-01, 1.45059705e-04, 0., 0., 0., 0.,
          0., 0., 7.81780109e-03, 9.94993389e-01, 1.36884209e-03, 0., 0.,
          0., 4.67119932e-01, 3.80551636e-01, 3.15422744e-01,
          2.45550632e-01, 4.67119932e-01, 1.81467444e-01, 5.57566024e-02,
          9.26620513e-03, 4.67119932e-01, 5.75672686e-01, 2.33288133e-03,
          6.99864328e-03, 6.68279681e-05, 5.75672686e-01, 4.75661582e-05,
          0., 0., 5.75672686e-01, 5.58749735e-01, 1.82539932e-02,
          2.89127100e-02, 2.21320674e-01, 5.58749735e-01, 8.75477046e-02,
          0., 0., 5.58749735e-01, 6.75836205e-01, 0., 0., 0.,
          2.82211602e-01, 0., 0., 1.00287311e-02, 6.75836205e-01,
          6.52491748e-01, 0., 0., 0., 3.76821935e-01, 0., 0., 0.,
          6.52491748e-01, 6.58733606e-01, 3.35783400e-02, 2.69556027e-02,
          6.78959265e-02, 3.44182581e-01, 2.52556447e-02, 0., 0.,
          6.58733606e-01 ]
      - [ 1.07394241e-01, 4.79408234e-01, 4.69384044e-01, 4.18033004e-01,
          4.79408234e-01, 3.57147098e-01, 3.72086912e-02, 1.48490211e-03,
          0., 1.27414260e-02, 1.25433117e-01, 1.82208821e-01,
          2.79215902e-01, 9.29338932e-01, 0., 0., 0., 0., 0., 0.,
          2.33830120e-02, 5.18551171e-01, 8.49751949e-01, 0., 0., 0., 0.,
          4.73551661e-01, 3.88529986e-01, 3.38599145e-01, 1.96181774e-01,
          4.73551661e-01, 1.34314239e-01, 1.75628737e-02, 8.68869014e-03,
          4.73551661e-01, 5.69529712e-01, 1.40155805e-02, 1.83265954e-02,
          1.43834040e-01, 5.69529712e-01, 0., 0., 0., 5.69529712e-01,
          5.59465766e-01, 2.14514248e-02, 4.22948673e-02, 2.19543725e-01,
          5.59465766e-01, 0., 0., 7.04188570e-02, 5.59465766e-01,
          7.04063237e-01, 0., 0., 0., 3.67854014e-02, 0., 0.,
          1.44434134e-02, 7.04063237e-01, 7.01222360e-01, 0., 0., 0.,
          9.78492647e-02, 0., 0., 0., 7.01222360e-01, 6.31660759e-01,
          4.06695418e-02, 3.44647355e-02, 9.33774002e-03, 3.90412867e-01,
          0., 0., 2.00877145e-01, 6.31660759e-01 ]
      - [ 2.43652359e-01, 5.58039367e-01, 3.37749034e-01, 2.89761990e-01,
          5.80831766e-01, 2.87689835e-01, 7.22508430e-02, 6.17633667e-03,
          0., 9.95693803e-02, 2.34004095e-01, 2.25080013e-01,
          4.98002082e-01, 7.51475990e-01, 2.53858566e-01, 0., 0., 0., 0.,
          0., 0., 2.92619504e-02, 9.70046461e-01, 2.20174149e-01, 0., 0.,
          0., 4.64164495e-01, 3.64867598e-01, 2.34062046e-01,
          3.73983592e-01, 4.64164495e-01, 1.33714229e-01, 5.46788722e-02,
          1.92655027e-02, 4.64164495e-01, 5.59074938e-01, 1.87457278e-02,
          1.18581904e-02, 2.02318192e-01, 5.59074938e-01, 1.23685956e-01,
          0., 0., 5.59074938e-01, 5.71658015e-01, 9.50545911e-03,
          5.62472735e-03, 2.49983668e-02, 5.71658015e-01, 1.14177942e-01,
          0., 1.13785826e-02, 5.71658015e-01, 6.99327886e-01, 0., 0., 0.,
          1.19156711e-01, 0., 3.57864983e-03, 2.62468532e-02,
          6.99327886e-01, 6.56847894e-01, 0., 0., 0., 3.61308604e-01, 0.,
          0., 0., 6.56847894e-01, 6.86251879e-01, 2.77690552e-02,
          1.90957508e-03, 3.33511084e-03, 2.22205594e-01, 0., 0.,
          3.32411677e-02, 6.86251879e-01 ]
      - [ 3.12310457e-01, 4.23071235e-01, 4.23071235e-01, 4.07550454e-01,
          4.23071235e-01, 4.23071235e-01, 8.59806091e-02, 6.27559423e-03,
          9.35383886e-02, 4.36422788e-02, 6.13321774e-02, 1.23723425e-01,
          2.03187261e-02, 6.87142849e-01, 6.87142849e-01, 1.62673458e-01,
          0., 3.09933312e-02, 2.19944537e-01, 3.77554387e-01,
          2.84092218e-01, 2.42092639e-01, 4.84411210e-01, 4.84411210e-01,
          3.25907648e-01, 1.43273175e-01, 2.62431383e-01, 3.87828499e-01,
          3.87828499e-01, 3.87828499e-01, 3.33821982e-01, 3.87828499e-01,
          3.87828499e-01, 8.66870657e-02, 8.76493379e-02, 3.42690259e-01,
          4.60047007e-01, 4.60047007e-01, 1.30446609e-02, 1.25752005e-03,
          4.60047007e-01, 4.60047007e-01, 7.00937584e-02, 0.,
          3.79139721e-01, 3.67222786e-01, 3.67222786e-01, 2.02983409e-01,
          1.05644755e-01, 3.67222786e-01, 3.67222786e-01, 3.67222786e-01,
          3.67222786e-01, 3.67222786e-01, 5.19919574e-01, 5.19919574e-01,
          2.78740805e-02, 5.43675460e-02, 2.76306450e-01, 1.30027071e-01,
          2.68884655e-02, 2.93514043e-01, 5.19919574e-01, 5.74084938e-01,
          5.74084938e-01, 0., 0., 5.18103838e-02, 5.35039753e-02, 0., 0.,
          5.74084938e-01, 4.79446739e-01, 2.06991598e-01, 1.55426070e-01,
          0., 0., 9.34434533e-02, 4.79446739e-01, 4.79446739e-01,
          4.79446739e-01 ]
      - [ 3.04422051e-01, 4.22394574e-01, 4.22394574e-01, 4.22394574e-01,
          4.22394574e-01, 4.22394574e-01, 1.02491841e-01, 1.23132393e-03,
          2.27086805e-02, 6.45552799e-02, 9.20809284e-02, 1.80427462e-01,
          5.58163226e-02, 6.63447142e-01, 6.63447142e-01, 2.54144698e-01,
          0., 1.21303378e-02, 1.56500235e-01, 9.98991579e-02,
          1.08006872e-01, 5.36029898e-02, 6.67832255e-01, 6.67832255e-01,
          9.38605368e-02, 3.41397561e-02, 2.05783427e-01, 3.97702813e-01,
          3.97702813e-01, 3.97702813e-01, 2.92381465e-01, 3.97702813e-01,
          3.97702813e-01, 1.14399262e-01, 9.90036130e-02, 3.11148852e-01,
          4.78229016e-01, 4.78229016e-01, 2.14493182e-02, 4.22523636e-03,
          4.78229016e-01, 4.78229016e-01, 1.27870142e-01, 0.,
          2.52156377e-01, 3.78435582e-01, 3.78435582e-01, 1.29846677e-01,
          4.54047928e-03, 3.78435582e-01, 3.78435582e-01, 3.78435582e-01,
          3.46493453e-01, 3.78435582e-01, 5.23747802e-01, 4.65956390e-01,
          3.94442901e-02, 6.95340857e-02, 3.83995831e-01, 1.41967162e-01,
          4.25159857e-02, 2.30704680e-01, 5.23747802e-01, 5.63849866e-01,
          5.63849866e-01, 0., 0., 1.63793072e-01, 1.17222801e-01,
          4.49088356e-03, 0., 5.63849866e-01, 4.82564658e-01,
          2.11801440e-01, 9.99558568e-02, 0., 0., 9.40985307e-02,
          4.82564658e-01, 4.82564658e-01, 4.82564658e-01 ]
      - [ 2.64100820e-01, 4.28745568e-01, 4.28745568e-01, 4.28745568e-01,
          4.28745568e-01, 4.28745568e-01, 8.00368935e-02, 8.12437944e-03,
          1.95496902e-02, 9.07502249e-02, 5.56578822e-02, 0., 0.,
          6.98761165e-01, 6.98761165e-01, 2.76552662e-02, 1.22486176e-02,
          6.51321709e-02, 3.45060021e-01, 1.26950800e-01, 7.79437739e-03,
          2.17640642e-02, 6.40532017e-01, 6.40532017e-01, 8.62748250e-02,
          5.99759482e-02, 1.62125915e-01, 3.92623991e-01, 3.92623991e-01,
          3.92623991e-01, 2.05271661e-01, 3.92623991e-01, 3.92623991e-01,
          4.48472016e-02, 1.64341852e-01, 3.92623991e-01, 4.43969220e-01,
          4.43969220e-01, 8.27904344e-02, 0., 4.43969220e-01,
          4.43969220e-01, 3.64128314e-02, 4.29152325e-02, 4.43969220e-01,
          3.74912471e-01, 3.74912471e-01, 1.11061096e-01, 2.09905743e-03,
          3.74912471e-01, 3.74912471e-01, 3.74912471e-01, 3.74912471e-01,
          3.74912471e-01, 4.72422361e-01, 4.72422361e-01, 5.14717735e-02,
          3.46065722e-02, 3.03272963e-01, 8.14208835e-02, 9.95443854e-03,
          4.72422361e-01, 4.72422361e-01, 5.73093474e-01, 5.73093474e-01,
          5.17786518e-02, 0., 3.91626321e-02, 2.45864112e-02,
          2.82542296e-02, 5.78919165e-02, 5.73093474e-01, 4.80475157e-01,
          2.08238646e-01, 1.68559477e-01, 0., 0., 0., 4.80475157e-01,
          4.80475157e-01, 4.80475157e-01 ]
      - [ 4.08644646e-01, 4.35978323e-01, 4.35978323e-01, 2.08290368e-01,
          4.35978323e-01, 4.35978323e-01, 5.07047474e-02, 1.44577306e-03,
          1.49627358e-01, 5.98978736e-02, 1.75808579e-01, 4.19443756e-01,
          7.73836374e-02, 6.19769096e-01, 6.19769096e-01, 9.53386128e-02,
          0., 8.79924558e-03, 1.85817450e-01, 1.23637319e-01,
          1.63640797e-01, 5.23396097e-02, 6.59899533e-01, 6.59899533e-01,
          1.80700436e-01, 3.29467990e-02, 9.69901085e-02, 3.98017794e-01,
          3.98017794e-01, 3.66385549e-01, 2.36379951e-01, 3.98017794e-01,
          3.98017794e-01, 4.64313403e-02, 1.07996881e-01, 3.98017794e-01,
          4.65744734e-01, 4.65744734e-01, 4.19538692e-02, 2.34779459e-03,
          4.65744734e-01, 4.65744734e-01, 3.39711271e-02, 0.,
          3.53207588e-01, 3.92343968e-01, 3.92343968e-01, 2.30461821e-01,
          2.02560518e-03, 2.63968557e-01, 3.63920689e-01, 3.92343968e-01,
          3.53710085e-01, 3.92343968e-01, 6.20156050e-01, 1.99563012e-01,
          1.05450936e-02, 4.96828407e-02, 3.16492707e-01, 9.26319957e-02,
          1.19751003e-02, 2.70784616e-01, 6.20156050e-01, 5.75207293e-01,
          5.75207293e-01, 0., 0., 3.22758332e-02, 2.49767695e-02,
          6.86595158e-04, 0., 5.75207293e-01, 4.55264658e-01,
          3.96720082e-01, 9.48796496e-02, 0., 0., 0., 4.55264658e-01,
          4.55264658e-01, 4.55264658e-01 ]
      - [ 3.23719054e-01, 4.28100556e-01, 4.28100556e-01, 3.78534555e-01,
          4.28100556e-01, 4.28100556e-01, 5.04732691e-02, 3.82399256e-03,
          1.09537639e-01, 1.50449714e-02, 6.60858005e-02, 1.85295343e-01,
          1.79190543e-02, 6.88653290e-01, 6.88653290e-01, 7.30158612e-02,
          0., 7.62656610e-03, 2.52188325e-01, 7.50477239e-02,
          6.19040951e-02, 4.69824560e-02, 6.63924634e-01, 6.63924634e-01,
          1.00355901e-01, 8.04801136e-02, 1.41283184e-01, 4.00013417e-01,
          4.00013417e-01, 4.00013417e-01, 1.71518192e-01, 4.00013417e-01,
          4.00013417e-01, 6.37575611e-02, 4.95574735e-02, 4.00013417e-01,
          4.54393774e-01, 4.54393774e-01, 1.71135515e-02, 7.51449785e-04,
          4.54393774e-01, 4.54393774e-01, 4.38898578e-02, 0.,
          4.09080327e-01, 3.76343966e-01, 3.76343966e-01, 6.60924986e-02,
          2.06976850e-02, 3.76343966e-01, 3.76343966e-01, 3.76343966e-01,
          3.76343966e-01, 3.76343966e-01, 5.53317547e-01, 4.19459939e-01,
          3.46000120e-02, 4.12030146e-02, 4.06284928e-01, 1.46995679e-01,
          2.94535086e-02, 1.25577644e-01, 5.53317547e-01, 5.72915375e-01,
          5.72915375e-01, 0., 0., 6.89917505e-02, 6.94474727e-02,
          3.32685944e-04, 0., 5.72915375e-01, 4.80479777e-01,
          2.39743665e-01, 0., 0., 2.24396009e-02, 1.17375866e-01,
          4.80479777e-01, 4.80479777e-01, 4.80479777e-01 ]
      - [ 3.35117906e-01, 3.97534281e-01, 4.22808319e-01, 4.20805335e-01,
          4.22808319e-01, 4.22808319e-01, 1.97328050e-02, 1.19122362e-03,
          1.08029857e-01, 4.80704010e-02, 2.15678275e-01, 3.51821542e-01,
          2.03634590e-01, 6.24348700e-01, 6.24348700e-01, 3.81655205e-04,
          0., 8.37850384e-03, 1.54739261e-01, 5.53315273e-03,
          3.40411067e-03, 5.60432449e-02, 6.92805231e-01, 6.92805231e-01,
          2.54486245e-03, 1.66403838e-02, 7.55974129e-02, 3.97466868e-01,
          3.97466868e-01, 2.62258977e-01, 3.63744974e-01, 3.97466868e-01,
          3.97466868e-01, 1.37217371e-02, 6.96504340e-02, 3.97466868e-01,
          5.21789730e-01, 3.10473144e-01, 4.19191085e-02, 1.28445765e-02,
          5.21789730e-01, 5.21789730e-01, 1.17819531e-04, 0.,
          2.82275766e-01, 4.08980668e-01, 1.89153492e-01, 4.49491013e-03,
          5.24224294e-03, 4.08980668e-01, 4.08980668e-01, 4.08980668e-01,
          3.51797909e-01, 4.08980668e-01, 6.05997741e-01, 1.55925125e-01,
          1.27283903e-02, 1.01846144e-01, 4.10767555e-01, 1.47247165e-01,
          0., 1.84996098e-01, 6.05997741e-01, 6.42718971e-01,
          4.36419219e-01, 0., 0., 9.67676118e-02, 6.34650886e-02, 0., 0.,
          6.13711655e-01, 4.93311971e-01, 1.45865753e-01, 1.92180462e-02,
          0., 0., 0., 4.93311971e-01, 4.93311971e-01, 4.93311971e-01 ]
      - [ 3.00599843e-01, 4.22893256e-01, 4.22893256e-01, 4.22893256e-01,
          4.22893256e-01, 4.22893256e-01, 1.04484789e-01, 1.74539723e-02,
          1.23936305e-04, 0., 4.60725576e-02, 3.83708030e-01,
          4.99815941e-01, 4.99815941e-01, 4.99815941e-01, 2.98396200e-01,
          8.46474990e-02, 0., 2.14865077e-02, 1.11449407e-02,
          1.77936479e-01, 4.23773497e-01, 4.23773497e-01, 4.23773497e-01,
          4.23773497e-01, 4.23773497e-01, 2.56124198e-01, 3.75277281e-01,
          3.75277281e-01, 3.75277281e-01, 3.75277281e-01, 3.75277281e-01,
          3.31635922e-01, 2.48919353e-01, 1.11883767e-01, 3.28061402e-01,
          3.40125054e-01, 1.77144796e-01, 3.73104304e-01, 3.73104304e-01,
          3.73104304e-01, 3.73104304e-01, 3.73104304e-01, 1.68381140e-01,
          3.53299588e-01, 3.12544912e-01, 1.43713072e-01, 2.79853463e-01,
          3.13211113e-01, 3.91841292e-01, 2.95245975e-01, 3.91841292e-01,
          3.91841292e-01, 3.91841292e-01, 5.56945741e-01, 9.02324244e-02,
          2.78709605e-02, 1.13421418e-01, 5.56945741e-01, 5.29884808e-02,
          2.80140713e-02, 1.96206868e-01, 5.56945741e-01, 5.77990353e-01,
          2.53333688e-01, 7.73151815e-02, 8.05583224e-02, 3.78421962e-01,
          8.52718130e-02, 4.93737683e-02, 3.10685247e-01, 5.77990353e-01,
          5.48588932e-01, 2.77596861e-01, 4.91324291e-02, 3.33805196e-02,
          5.48588932e-01, 5.81787601e-02, 6.66074231e-02, 5.71201555e-02,
          5.48588932e-01 ]
      - [ 8.53871778e-02, 4.39066380e-01, 4.39066380e-01, 4.39066380e-01,
          4.39066380e-01, 4.27986205e-01, 1.82878837e-01, 2.42722444e-02,
          0., 0., 1.67036001e-02, 4.44956034e-01, 4.44956034e-01,
          4.44956034e-01, 4.44956034e-01, 4.44956034e-01, 7.31241181e-02,
          0., 0., 9.95004270e-03, 1.35666639e-01, 4.41155106e-01,
          4.41155106e-01, 4.41155106e-01, 4.41155106e-01, 4.41155106e-01,
          6.32432252e-02, 2.72967607e-01, 3.99970680e-01, 3.99970680e-01,
          3.99970680e-01, 3.99970680e-01, 3.29238147e-01, 2.53793240e-01,
          1.52421355e-01, 2.92481899e-01, 2.77820349e-01, 9.97664556e-02,
          4.03705031e-01, 4.03705031e-01, 4.03705031e-01, 4.03705031e-01,
          4.03705031e-01, 1.55549377e-01, 2.64093101e-01, 2.20068008e-01,
          8.83088484e-02, 2.65053958e-01, 3.89444083e-01, 3.89444083e-01,
          3.89444083e-01, 3.89444083e-01, 3.89444083e-01, 3.33607405e-01,
          5.44269025e-01, 5.82857765e-02, 1.87064391e-02, 9.96352881e-02,
          4.84239787e-01, 4.63191606e-02, 2.12996565e-02, 3.89031291e-01,
          5.44269025e-01, 6.13246977e-01, 2.05814138e-01, 5.72921708e-02,
          1.65256709e-01, 2.71873802e-01, 6.51899278e-02, 3.37169170e-02,
          2.99131870e-01, 6.13246977e-01, 5.37847936e-01, 2.53105313e-01,
          3.72103155e-02, 8.87343362e-02, 5.37847936e-01, 1.72599360e-01,
          2.44305618e-02, 1.51919588e-01, 5.37847936e-01 ]
      - [ 3.38665247e-01, 4.15898561e-01, 4.15898561e-01, 4.15898561e-01,
          4.15898561e-01, 4.15898561e-01, 7.66458288e-02, 8.39397963e-03,
          1.01725459e-01, 3.92677113e-02, 2.37895191e-01, 4.92659152e-01,
          2.93517858e-01, 4.92659152e-01, 2.64117956e-01, 4.92659152e-01,
          2.28781417e-01, 2.35026944e-02, 1.40448645e-01, 1.02629839e-02,
          6.97345361e-02, 4.72104222e-01, 4.72104222e-01, 2.80391902e-01,
          4.72104222e-01, 4.07394946e-01, 2.39484638e-01, 3.71222138e-01,
          3.71222138e-01, 3.71222138e-01, 3.71222138e-01, 3.71222138e-01,
          3.33620131e-01, 2.06867948e-01, 1.23932809e-01, 3.71222138e-01,
          2.84308910e-01, 1.94776684e-01, 3.80663484e-01, 3.80663484e-01,
          3.80663484e-01, 3.80663484e-01, 3.80663484e-01, 2.44529381e-01,
          3.05138350e-01, 3.96012515e-01, 1.10469818e-01, 2.11456969e-01,
          2.80210376e-01, 3.96012515e-01, 2.76548266e-01, 3.96012515e-01,
          3.96012515e-01, 3.96012515e-01, 5.52677393e-01, 7.48904645e-02,
          3.02082375e-02, 1.28636166e-01, 5.52677393e-01, 6.54064864e-02,
          2.23124623e-02, 2.24231258e-01, 5.52677393e-01, 5.30630529e-01,
          1.96018353e-01, 5.35104796e-02, 9.90507901e-02, 2.99574256e-01,
          8.66996497e-02, 4.04378586e-02, 5.30630529e-01, 5.30630529e-01,
          5.42092741e-01, 2.99952537e-01, 5.50094023e-02, 4.07085158e-02,
          5.42092741e-01, 8.04113597e-02, 4.33043763e-02, 9.99840945e-02,
          5.42092741e-01 ]
      - [ 4.14854735e-01, 4.14854735e-01, 4.14854735e-01, 3.60268176e-01,
          4.14854735e-01, 4.14854735e-01, 6.74828887e-02, 6.30518934e-03,
          3.07665374e-02, 7.20421970e-02, 3.39326382e-01, 4.11908150e-01,
          4.11908150e-01, 4.11908150e-01, 3.67085844e-01, 4.11908150e-01,
          2.46773854e-01, 3.50740328e-02, 5.13920859e-02, 7.41573516e-03,
          7.89966434e-02, 4.36285168e-01, 4.36285168e-01, 1.87033713e-01,
          4.36285168e-01, 4.36285168e-01, 4.36285168e-01, 3.56341809e-01,
          3.56341809e-01, 3.56341809e-01, 3.56341809e-01, 3.56341809e-01,
          3.56341809e-01, 3.54801387e-01, 1.37123495e-01, 2.99793392e-01,
          3.02193850e-01, 2.28776217e-01, 3.78515542e-01, 3.78515542e-01,
          3.78515542e-01, 3.78515542e-01, 3.78515542e-01, 1.77794278e-01,
          3.23385149e-01, 3.46800447e-01, 1.85392931e-01, 3.46800447e-01,
          3.46800447e-01, 3.46800447e-01, 3.46800447e-01, 3.46800447e-01,
          3.46800447e-01, 3.46800447e-01, 4.77329254e-01, 8.05687383e-02,
          7.57548511e-02, 4.35033381e-01, 4.77329254e-01, 2.50491500e-01,
          4.71829027e-02, 2.12711826e-01, 4.77329254e-01, 5.24409890e-01,
          3.53795409e-01, 1.14152603e-01, 2.54794061e-01, 2.95820922e-01,
          2.57334501e-01, 1.11465707e-01, 2.74724483e-01, 5.24409890e-01,
          4.79065508e-01, 2.74366945e-01, 5.15753888e-02, 2.59793371e-01,
          4.79065508e-01, 3.88897538e-01, 7.68236071e-02, 6.42713085e-02,
          4.79065508e-01 ]
      - [ 3.04345518e-01, 4.25689131e-01, 4.25689131e-01, 3.71693224e-01,
          4.25689131e-01, 4.20978427e-01, 8.02673101e-02, 6.37936639e-03,
          1.93972751e-01, 2.76656616e-02, 2.56718993e-01, 4.54922110e-01,
          4.54922110e-01, 4.54922110e-01, 2.85058677e-01, 4.54922110e-01,
          1.39891714e-01, 1.18848085e-02, 1.22293629e-01, 7.45087815e-03,
          7.05979392e-02, 4.34718668e-01, 4.34718668e-01, 3.39363158e-01,
          4.34718668e-01, 4.34718668e-01, 3.23378593e-01, 3.73975486e-01,
          3.73975486e-01, 3.73975486e-01, 3.73975486e-01, 3.73975486e-01,
          3.25844616e-01, 1.98511541e-01, 1.07407928e-01, 3.73975486e-01,
          3.67731303e-01, 1.73480406e-01, 3.68456811e-01, 3.68456811e-01,
          3.68456811e-01, 3.68456811e-01, 3.68456811e-01, 1.39485583e-01,
          3.64333332e-01, 3.84559363e-01, 1.38071597e-01, 1.40746638e-01,
          3.36299717e-01, 3.85764092e-01, 3.17857921e-01, 3.85764092e-01,
          3.85764092e-01, 3.85764092e-01, 5.41521728e-01, 8.91047344e-02,
          2.33490523e-02, 1.15458801e-01, 5.41521728e-01, 7.29723051e-02,
          3.24776396e-02, 2.94379830e-01, 5.41521728e-01, 5.57334006e-01,
          3.50842774e-01, 3.52468938e-02, 1.17679834e-01, 2.91926235e-01,
          1.23855554e-01, 2.51556523e-02, 3.65809679e-01, 5.57334006e-01,
          4.67545658e-01, 4.36513484e-01, 1.64181720e-02, 4.79984879e-02,
          4.67545658e-01, 7.12229908e-02, 3.32056023e-02, 3.74486923e-01,
          4.67545658e-01 ]
      - [ 3.39571416e-01, 4.10505503e-01, 4.10505503e-01, 4.10505503e-01,
          4.10505503e-01, 4.10505503e-01, 1.89359844e-01, 2.81366725e-02,
          3.69852372e-02, 0., 1.30910128e-01, 4.24188524e-01,
          4.60927963e-01, 4.60927963e-01, 4.60927963e-01, 3.95236373e-01,
          6.88990355e-02, 0., 0., 2.64426302e-02, 1.65527701e-01,
          4.55054760e-01, 4.55054760e-01, 3.46341908e-01, 4.55054760e-01,
          4.55054760e-01, 1.38217211e-01, 4.04281765e-01, 3.59501660e-01,
          4.04281765e-01, 2.31468409e-01, 4.04281765e-01, 2.23726258e-01,
          2.69500107e-01, 1.91529378e-01, 4.04281765e-01, 3.62747848e-01,
          2.05830008e-01, 3.62747848e-01, 3.62747848e-01, 3.62747848e-01,
          3.62747848e-01, 3.62747848e-01, 1.81405291e-01, 3.62747848e-01,
          3.96774858e-01, 1.51551798e-01, 2.16135263e-01, 2.31806800e-01,
          4.15434271e-01, 1.57035515e-01, 4.15434271e-01, 4.15434271e-01,
          4.15434271e-01, 5.48939049e-01, 5.62144145e-02, 2.56149396e-02,
          5.52944280e-02, 5.48939049e-01, 2.37362403e-02, 2.31345706e-02,
          2.87303954e-01, 5.48939049e-01, 6.00461245e-01, 2.01402798e-01,
          4.61880565e-02, 5.75325564e-02, 3.64531964e-01, 4.28389423e-02,
          4.62005325e-02, 3.00062358e-01, 6.00461245e-01, 5.59743524e-01,
          2.19839931e-01, 2.48636752e-02, 2.11006794e-02, 5.59743524e-01,
          3.55957188e-02, 3.99417952e-02, 4.70803082e-02, 5.59743524e-01 ]
      - [ 4.06227559e-01, 4.06227559e-01, 4.06227559e-01, 3.72738391e-01,
          4.06227559e-01, 4.06227559e-01, 1.60705730e-01, 1.62667055e-02,
          7.62428865e-02, 1.01938821e-01, 3.24982136e-01, 3.99585634e-01,
          3.99585634e-01, 3.99585634e-01, 3.99585634e-01, 3.99585634e-01,
          2.73231506e-01, 8.36922228e-02, 9.08152908e-02, 1.60268918e-02,
          1.51363775e-01, 4.31010723e-01, 4.31010723e-01, 1.88223273e-01,
          4.31010723e-01, 4.31010723e-01, 4.31010723e-01, 3.56714457e-01,
          3.56714457e-01, 3.56714457e-01, 3.56714457e-01, 3.56714457e-01,
          3.56714457e-01, 3.56714457e-01, 2.35999480e-01, 2.23660365e-01,
          2.56412655e-01, 3.17754805e-01, 3.73908997e-01, 3.73908997e-01,
          3.73908997e-01, 3.73908997e-01, 3.73908997e-01, 2.80103803e-01,
          2.28147179e-01, 2.50084639e-01, 3.08037817e-01, 3.46226841e-01,
          3.46226841e-01, 3.46226841e-01, 3.46226841e-01, 3.46226841e-01,
          3.46226841e-01, 3.46226841e-01, 4.59408045e-01, 1.89233765e-01,
          7.41419271e-02, 3.09855819e-01, 4.59408045e-01, 1.53467879e-01,
          5.02656549e-02, 4.45923477e-01, 4.59408045e-01, 4.50418323e-01,
          4.50418323e-01, 9.39790830e-02, 1.78807542e-01, 3.00549448e-01,
          2.03645349e-01, 1.06717236e-01, 4.50418323e-01, 4.50418323e-01,
          4.55155760e-01, 4.55155760e-01, 4.86151502e-02, 1.46230549e-01,
          4.55155760e-01, 2.99486190e-01, 7.97866136e-02, 2.16752723e-01,
          4.55155760e-01 ]
      - [ 2.94905007e-01, 4.20350790e-01, 4.20350790e-01, 4.20350790e-01,
          4.20350790e-01, 4.20350790e-01, 1.18242271e-01, 1.49048120e-02,
          1.05615467e-01, 2.01135688e-02, 1.36861160e-01, 3.78730655e-01,
          4.55577463e-01, 4.55577463e-01, 3.49164009e-01, 4.55577463e-01,
          2.92846441e-01, 5.04966155e-02, 1.28997013e-01, 9.02755279e-03,
          6.80676028e-02, 4.56031233e-01, 4.56031233e-01, 2.72517622e-01,
          4.56031233e-01, 4.30178463e-01, 3.01458627e-01, 3.64811003e-01,
          3.64811003e-01, 3.64811003e-01, 3.64811003e-01, 3.64811003e-01,
          3.07371646e-01, 2.95470923e-01, 1.26698643e-01, 3.64811003e-01,
          3.21906209e-01, 1.87983200e-01, 3.70810270e-01, 3.70810270e-01,
          3.70810270e-01, 3.70810270e-01, 3.70810270e-01, 2.29303420e-01,
          3.42421889e-01, 3.84093821e-01, 1.32369727e-01, 1.91312060e-01,
          3.08004022e-01, 3.84093821e-01, 3.30959022e-01, 3.84093821e-01,
          3.84093821e-01, 3.84093821e-01, 5.54506302e-01, 3.74092907e-02,
          3.90395783e-02, 9.92470831e-02, 5.54506302e-01, 6.49273470e-02,
          2.86517460e-02, 2.32853919e-01, 5.54506302e-01, 5.88301599e-01,
          1.26559481e-01, 5.68371788e-02, 1.07816577e-01, 3.18983197e-01,
          8.55899304e-02, 4.90511134e-02, 3.99467349e-01, 5.88301599e-01,
          5.11846960e-01, 4.09801573e-01, 2.16536522e-02, 4.08849679e-02,
          5.11846960e-01, 9.52185020e-02, 3.88823375e-02, 1.68136761e-01,
          5.11846960e-01 ]
      - [ 1.05556613e-02, 4.45449919e-01, 4.45449919e-01, 4.45449919e-01,
          4.45449919e-01, 4.45449919e-01, 5.75287156e-02, 1.14796206e-03,
          0., 1.50579382e-02, 3.41544628e-01, 4.24627483e-01,
          2.06369534e-01, 5.03659904e-01, 2.76692212e-01, 5.03659904e-01,
          2.63313115e-01, 4.42105755e-02, 3.32915820e-02, 1.23141780e-02,
          1.00657180e-01, 4.34117317e-01, 4.34117317e-01, 2.23625273e-01,
          4.34117317e-01, 4.34117317e-01, 4.24773008e-01, 4.09728378e-01,
          4.09728378e-01, 4.09728378e-01, 2.40330651e-01, 4.09728378e-01,
          4.09728378e-01, 1.85086742e-01, 1.41936883e-01, 2.10613638e-01,
          1.54206529e-01, 4.35655594e-01, 4.35655594e-01, 4.35655594e-01,
          4.35655594e-01, 1.39125168e-01, 5.33982068e-02, 2.86211431e-01,
          3.29486430e-01, 2.42986649e-01, 2.10432932e-01, 1.44209713e-01,
          2.81040996e-01, 3.98225278e-01, 3.98225278e-01, 3.98225278e-01,
          3.98225278e-01, 3.98225278e-01, 5.29495180e-01, 5.29495180e-01,
          1.74665656e-02, 1.55519200e-02, 4.36411873e-02, 2.81624515e-02,
          1.47497682e-02, 3.87497842e-01, 5.29495180e-01, 5.12009144e-01,
          5.91319539e-02, 9.01006758e-02, 2.39206985e-01, 3.73330593e-01,
          1.71140104e-03, 1.45973433e-02, 5.12009144e-01, 5.12009144e-01,
          4.89711195e-01, 4.57150370e-01, 1.24012576e-02, 4.43945117e-02,
          4.89711195e-01, 2.49844387e-01, 3.94519083e-02, 2.38329712e-02,
          4.89711195e-01 ]
      - [ 4.37607616e-02, 3.75246955e-03, 0., 0., 7.03452826e-01,
          7.03452826e-01, 1.97634436e-02, 0., 3.10887005e-02,
          4.04644728e-01, 6.40393421e-02, 0., 0., 6.32693827e-01,
          6.32693827e-01, 2.39354409e-02, 9.86577477e-03, 1.56753212e-01,
          2.55864084e-01, 2.04631418e-01, 5.66232741e-01, 1.49567306e-01,
          6.53245926e-01, 2.83507258e-01, 1.19731694e-01, 8.22145864e-02,
          1.22255713e-01, 4.65065539e-01, 3.60637575e-01, 0., 0.,
          4.65065539e-01, 4.65065539e-01, 1.23097450e-02, 0.,
          4.65065539e-01, 4.50294316e-01, 2.43670389e-01, 0., 0.,
          4.50294316e-01, 4.14890528e-01, 3.60962123e-01, 1.59387127e-01,
          4.50294316e-01, 3.75191987e-01, 2.63457090e-01, 3.75191987e-01,
          1.16466366e-01, 3.75191987e-01, 2.62037098e-01, 3.75191987e-01,
          3.75191987e-01, 3.75191987e-01, 5.75688422e-01, 5.75688422e-01,
          0., 0., 0., 0., 0., 0., 5.75688422e-01, 4.82597828e-01,
          4.94861789e-02, 0., 0., 2.22464129e-01, 1.07879981e-01,
          4.82597828e-01, 4.82597828e-01, 4.82597828e-01, 4.79537159e-01,
          2.94678867e-01, 2.57443696e-01, 3.43755214e-03, 1.45726413e-01,
          4.05552685e-02, 3.59634846e-01, 4.79537159e-01, 4.79537159e-01 ]
      - [ 3.83943230e-01, 9.12275687e-02, 0., 0., 6.42604887e-01,
          6.42604887e-01, 2.40366347e-02, 0., 1.06722131e-01,
          5.40040135e-01, 1.63799286e-01, 0., 0., 5.40040135e-01,
          5.40040135e-01, 5.36068156e-02, 2.82993112e-02, 2.98617005e-01,
          2.88372904e-01, 3.34860414e-01, 4.59528983e-01, 1.54481113e-01,
          4.59528983e-01, 4.59528983e-01, 2.51740843e-01, 1.46974981e-01,
          2.40373358e-01, 4.47718382e-01, 4.13814992e-01, 0., 0.,
          4.47718382e-01, 4.47718382e-01, 1.36947185e-01, 6.10198528e-02,
          4.47718382e-01, 4.39694703e-01, 2.31495455e-01, 0., 0.,
          4.39694703e-01, 3.59264910e-01, 4.35332060e-01, 2.08418414e-01,
          4.39694703e-01, 3.45012277e-01, 3.11328948e-01, 3.45012277e-01,
          2.57667989e-01, 3.45012277e-01, 3.45012277e-01, 3.45012277e-01,
          3.45012277e-01, 3.45012277e-01, 4.62749630e-01, 3.56631279e-01,
          0., 0., 8.57092440e-02, 6.55511618e-02, 4.62749630e-01,
          4.62749630e-01, 4.62749630e-01, 4.44856405e-01, 1.43147918e-04,
          0., 0., 4.44856405e-01, 7.79118985e-02, 4.44856405e-01,
          4.44856405e-01, 4.44856405e-01, 4.09279436e-01, 4.09279436e-01,
          3.47614586e-01, 3.44264619e-02, 1.84809715e-01, 4.67701256e-02,
          4.09279436e-01, 4.09279436e-01, 4.09279436e-01 ]
      - [ 8.67574066e-02, 1.29999034e-02, 0., 0., 7.00120151e-01,
          7.00120151e-01, 8.79102293e-03, 0., 7.00122789e-02,
          4.27842587e-01, 6.09857924e-02, 0., 1.08530946e-01,
          6.08063519e-01, 6.08063519e-01, 6.33771205e-03, 1.01832682e-02,
          2.36124411e-01, 1.78972319e-01, 1.33212283e-01, 4.06351566e-01,
          4.84557748e-01, 4.93938118e-01, 4.93938118e-01, 1.67601615e-01,
          6.57662079e-02, 1.58136219e-01, 4.88486499e-01, 2.01514184e-01,
          0., 0., 4.88486499e-01, 4.88486499e-01, 6.08322211e-03, 0.,
          4.88486499e-01, 4.33716744e-01, 2.09851593e-01, 1.97972581e-02,
          1.05725713e-01, 4.33716744e-01, 4.33716744e-01, 4.05716598e-01,
          1.51701659e-01, 4.33716744e-01, 3.45499337e-01, 2.03935504e-01,
          3.45499337e-01, 3.45499337e-01, 3.45499337e-01, 3.45499337e-01,
          3.45499337e-01, 3.45499337e-01, 3.45499337e-01, 6.69712663e-01,
          3.10296774e-01, 0., 0., 0., 0., 0., 0., 6.69712663e-01,
          4.60640520e-01, 4.78913076e-02, 1.70766115e-02, 7.89809674e-02,
          1.52690485e-01, 3.38382334e-01, 4.60640520e-01, 4.60640520e-01,
          4.60640520e-01, 5.04971445e-01, 3.61612856e-01, 4.99719419e-02,
          5.89599833e-02, 1.36780709e-01, 1.15873195e-01, 2.47174487e-01,
          5.04971445e-01, 5.04971445e-01 ]
      - [ 2.12798454e-02, 6.58691686e-04, 0., 0., 7.04416215e-01,
          7.04416215e-01, 1.22473540e-03, 0., 1.04492158e-02,
          3.92184019e-01, 4.22862843e-02, 0., 0., 6.43066704e-01,
          6.43066704e-01, 1.64267402e-02, 1.22000128e-02, 1.02444969e-01,
          1.96218178e-01, 1.44170538e-01, 4.84099925e-01, 4.59643543e-01,
          4.84099925e-01, 4.84099925e-01, 7.33499900e-02, 6.63254485e-02,
          1.08483009e-01, 4.96866465e-01, 2.17579097e-01, 0., 0.,
          4.96866465e-01, 4.96866465e-01, 3.98249850e-02, 1.54419513e-02,
          4.53038186e-01, 4.46646363e-01, 2.10726991e-01, 0., 0.,
          4.46646363e-01, 4.32028145e-01, 3.64463598e-01, 1.82131082e-01,
          4.46646363e-01, 3.54133129e-01, 2.51895905e-01, 3.54133129e-01,
          3.10306042e-01, 3.54133129e-01, 2.90273875e-01, 3.54133129e-01,
          3.54133129e-01, 3.54133129e-01, 6.64807796e-01, 3.26446176e-01,
          0., 0., 3.66787746e-04, 6.12673757e-04, 3.88491489e-02,
          3.67044099e-02, 6.64807796e-01, 4.86471504e-01, 7.09995776e-02,
          0., 0., 1.82716444e-01, 1.00483224e-01, 4.86471504e-01,
          4.86471504e-01, 4.86471504e-01, 4.69931364e-01, 4.38992500e-01,
          2.00326994e-01, 2.32844613e-02, 1.25387102e-01, 3.71001884e-02,
          2.86904007e-01, 4.69931364e-01, 4.69931364e-01 ]
      - [ 4.27096397e-01, 1.46652665e-02, 0., 0., 5.90973735e-01,
          5.90973735e-01, 3.43161039e-02, 6.21913141e-03, 3.34300220e-01,
          5.06636202e-01, 5.10613620e-02, 0., 0., 6.62282288e-01,
          3.78082335e-01, 3.09578944e-02, 4.56430670e-03, 3.89303595e-01,
          2.27909476e-01, 1.17402554e-01, 4.12676573e-01, 4.91084158e-01,
          4.91084158e-01, 4.64183211e-01, 9.11729038e-02, 5.80229163e-02,
          2.22698614e-01, 5.60069978e-01, 7.24735036e-02, 0., 0.,
          5.60069978e-01, 2.16506332e-01, 2.75230110e-02, 2.20657438e-02,
          5.60069978e-01, 4.99803036e-01, 1.72733188e-01, 0., 0.,
          4.99803036e-01, 2.58077651e-01, 3.17608714e-01, 2.19733819e-01,
          4.99803036e-01, 3.48339200e-01, 2.16971546e-01, 3.41527313e-01,
          3.23667675e-01, 3.48339200e-01, 3.48339200e-01, 3.48339200e-01,
          3.48339200e-01, 3.48339200e-01, 6.91120684e-01, 0., 0., 0., 0.,
          0., 0., 0., 6.91120684e-01, 4.02693659e-01, 0., 0., 0.,
          6.48857430e-02, 2.17238531e-01, 5.10339200e-01, 5.10339200e-01,
          5.10339200e-01, 4.95419234e-01, 4.14055705e-01, 9.08674747e-02,
          6.25294680e-03, 5.51129431e-02, 5.48009127e-02, 2.70097226e-01,
          4.95419234e-01, 4.95419234e-01 ]
      - [ 2.47116849e-01, 1.55617306e-02, 0., 0., 6.74000442e-01,
          6.74000442e-01, 2.89645959e-02, 2.19778554e-03, 1.50218561e-01,
          4.31095034e-01, 4.23716865e-02, 0., 4.31213528e-04,
          6.02112472e-01, 6.02112472e-01, 1.65757816e-02, 1.39037780e-02,
          2.84258127e-01, 1.39565378e-01, 1.67010143e-01, 6.47520065e-01,
          2.60550827e-01, 6.47520065e-01, 9.38213915e-02, 5.62272705e-02,
          5.68673052e-02, 1.56574041e-01, 5.47179937e-01, 1.17030568e-01,
          0., 0., 5.47179937e-01, 2.84808993e-01, 3.44010554e-02,
          1.79501604e-02, 5.47179937e-01, 4.52263921e-01, 1.36810422e-01,
          0., 5.29084173e-05, 4.52263921e-01, 3.24277431e-01,
          4.52263921e-01, 2.31168091e-01, 4.52263921e-01, 3.70920658e-01,
          2.52088815e-01, 3.70920658e-01, 3.27870667e-01, 3.70920658e-01,
          1.95360661e-01, 3.70920658e-01, 3.14912617e-01, 3.70920658e-01,
          6.99369371e-01, 1.19320728e-01, 0., 0., 0., 0., 0.,
          2.33706106e-02, 6.99369371e-01, 4.76139069e-01, 0., 0., 0.,
          2.71445453e-01, 1.21359177e-01, 4.76139069e-01, 4.76139069e-01,
          4.76139069e-01, 5.71989059e-01, 2.62427837e-01, 3.10401022e-02,
          7.29409456e-02, 2.46078759e-01, 3.85105051e-02, 1.33145332e-01,
          4.30148393e-01, 5.71989059e-01 ]
      - [ 4.06007975e-01, 5.83367422e-02, 1.07734181e-01, 3.29827406e-02,
          7.39158332e-01, 2.54896790e-01, 1.66088000e-01, 1.03923894e-01,
          4.02453899e-01, 1.07447512e-01, 3.94797832e-01, 5.12263477e-01,
          5.12263477e-01, 5.12263477e-01, 3.97922099e-02, 1.34875059e-01,
          1.07421994e-01, 9.44337845e-02, 1.11322425e-01, 4.34207991e-02,
          1.48561418e-01, 3.99947375e-01, 3.99947375e-01, 3.99947375e-01,
          3.99947375e-01, 3.99832964e-01, 3.99947375e-01, 3.77025217e-01,
          3.77025217e-01, 3.77025217e-01, 4.06335620e-03, 3.77025217e-01,
          3.43619660e-02, 3.77025217e-01, 3.77025217e-01, 3.77025217e-01,
          3.35835487e-01, 3.60128134e-01, 3.60128134e-01, 3.60128134e-01,
          3.60128134e-01, 2.68572825e-03, 3.24739695e-01, 3.60128134e-01,
          3.60128134e-01, 4.15977716e-01, 1.75300002e-01, 1.25923067e-01,
          2.63205022e-01, 4.15977716e-01, 3.58888090e-01, 3.87255877e-01,
          2.86532432e-01, 4.15977716e-01, 4.15212870e-01, 4.15212870e-01,
          4.15212870e-01, 0., 0., 0., 3.65846276e-01, 4.15212870e-01,
          4.15212870e-01, 5.44494867e-01, 0., 1.09130014e-02,
          1.25732630e-01, 2.90237576e-01, 0., 7.05178082e-02,
          5.44494867e-01, 5.44494867e-01, 5.58287859e-01, 2.17193022e-01,
          2.11057588e-02, 5.03192991e-02, 5.58287859e-01, 9.54663232e-02,
          9.22075938e-03, 4.44351742e-03, 5.58287859e-01 ]
      - [ 3.46230388e-01, 1.43357366e-01, 7.29928017e-02, 2.67741263e-01,
          7.10519135e-01, 2.73328628e-02, 9.85474810e-02, 1.62147343e-01,
          4.83610988e-01, 6.91940561e-02, 4.95285362e-01, 4.95285362e-01,
          4.95285362e-01, 4.95285362e-01, 0., 3.34068388e-02,
          7.01787993e-02, 5.47173657e-02, 0., 5.01029380e-02,
          3.26482236e-01, 4.18723822e-01, 4.18723822e-01, 4.18723822e-01,
          4.18723822e-01, 4.18723822e-01, 1.00339383e-01, 3.89177799e-01,
          3.89177799e-01, 3.89177799e-01, 5.97379506e-02, 2.89447576e-01,
          2.69933976e-03, 3.89177799e-01, 3.89177799e-01, 3.89177799e-01,
          1.66597128e-01, 3.82620543e-01, 3.82620543e-01, 3.82620543e-01,
          3.82620543e-01, 0., 3.00053507e-01, 3.82620543e-01,
          3.82620543e-01, 2.47294873e-01, 1.48511276e-01, 2.19415009e-01,
          3.91726583e-01, 3.91726583e-01, 3.91726583e-01, 3.91726583e-01,
          3.91726583e-01, 3.12225550e-01, 4.07316118e-01, 4.07316118e-01,
          4.07316118e-01, 1.96012873e-02, 1.04031172e-02, 0.,
          4.07316118e-01, 4.07316118e-01, 4.07316118e-01, 5.05958021e-01,
          8.07020441e-03, 5.26578650e-02, 1.91932410e-01, 4.27544415e-01,
          0., 6.70526177e-02, 5.05958021e-01, 5.05958021e-01,
          5.31296551e-01, 3.30872059e-01, 2.68193465e-02, 7.66188949e-02,
          5.31296551e-01, 1.72591567e-01, 4.37886193e-02, 9.73343011e-03,
          5.31296551e-01 ]
      - [ 2.98188955e-01, 8.75089765e-02, 2.82670427e-02, 4.74214673e-01,
          7.42824376e-01, 6.88030496e-02, 7.60805309e-02, 1.15292802e-01,
          3.07782054e-01, 7.58479238e-02, 4.76224065e-01, 5.29903412e-01,
          4.44447041e-01, 5.29903412e-01, 0., 2.46353000e-02,
          3.98561731e-02, 2.90145557e-02, 2.85304897e-02, 6.37731329e-02,
          2.06272706e-01, 4.32270914e-01, 4.32270914e-01, 4.06695753e-01,
          4.32270914e-01, 4.32270914e-01, 1.88197881e-01, 3.79379123e-01,
          3.79379123e-01, 3.79379123e-01, 6.58798069e-02, 3.58117282e-01,
          7.11448817e-03, 3.79379123e-01, 3.79379123e-01, 3.79379123e-01,
          3.07577848e-01, 3.83756548e-01, 3.83756548e-01, 3.83756548e-01,
          3.83756548e-01, 0., 2.20969766e-01, 3.83756548e-01,
          3.41158390e-01, 2.80025601e-01, 1.11465022e-01, 7.92352483e-02,
          3.73302728e-01, 4.24301535e-01, 1.97894931e-01, 4.24301535e-01,
          4.24301535e-01, 4.24301535e-01, 4.31901783e-01, 4.31901783e-01,
          4.31901783e-01, 1.26253469e-02, 0., 0., 2.50659794e-01,
          4.31901783e-01, 4.31901783e-01, 5.08927882e-01, 6.88445661e-03,
          5.50601408e-02, 1.90214783e-01, 4.20593888e-01, 0.,
          4.16474305e-02, 5.08927882e-01, 5.08927882e-01, 5.48753202e-01,
          2.57743388e-01, 7.00004771e-03, 1.11735851e-01, 5.48753202e-01,
          6.18691072e-02, 8.65762234e-02, 2.90001985e-02, 5.48753202e-01 ]
      - [ 4.97964293e-01, 2.69197524e-01, 1.52949616e-01, 0.,
          4.97964293e-01, 5.05268537e-02, 3.48569870e-01, 1.76653430e-01,
          4.97964293e-01, 4.65750217e-01, 4.65750217e-01, 4.65750217e-01,
          1.17696479e-01, 4.65750217e-01, 2.70044655e-02, 2.43329599e-01,
          1.08132802e-01, 2.05356121e-01, 1.30813450e-01, 1.50213271e-01,
          3.93172532e-01, 3.93172532e-01, 3.93172532e-01, 1.69965312e-01,
          3.93172532e-01, 3.93172532e-01, 3.93172532e-01, 2.49548554e-01,
          4.25440848e-01, 4.25440848e-01, 1.71500981e-01, 6.35633711e-04,
          1.55868962e-01, 4.25440848e-01, 4.25440848e-01, 3.94674540e-01,
          3.63528013e-01, 3.63528013e-01, 3.63528013e-01, 3.63528013e-01,
          3.63528013e-01, 3.63781117e-02, 2.98524320e-01, 3.63528013e-01,
          3.36173028e-01, 3.08027297e-01, 3.11183006e-01, 1.91554010e-01,
          1.16858520e-01, 3.88344139e-01, 3.88344139e-01, 3.88344139e-01,
          3.88344139e-01, 3.88344139e-01, 4.31326061e-01, 4.31326061e-01,
          4.31326061e-01, 1.07707828e-01, 3.41459207e-04, 0.,
          2.32119292e-01, 4.31326061e-01, 4.31326061e-01, 4.68901604e-01,
          6.95540989e-03, 9.19205621e-02, 3.26332927e-01, 4.68901604e-01,
          1.78283604e-03, 2.91126091e-02, 4.68901604e-01, 4.68901604e-01,
          4.73840714e-01, 4.73840714e-01, 1.84068810e-02, 8.40682909e-03,
          4.73840714e-01, 3.03403944e-01, 6.80607110e-02, 8.44525173e-03,
          4.73840714e-01 ]
      - [ 3.82938117e-01, 7.49525726e-02, 3.26020345e-02, 7.80051202e-02,
          6.78499877e-01, 4.58305538e-01, 8.94621834e-02, 3.05820331e-02,
          3.93032551e-01, 9.79381427e-02, 4.20545936e-01, 4.85983223e-01,
          4.85983223e-01, 4.85983223e-01, 1.75424516e-01, 2.23714843e-01,
          8.69481862e-02, 1.08508654e-01, 1.83532476e-01, 2.74118185e-02,
          1.22880258e-01, 4.37769383e-01, 4.37769383e-01, 3.06964606e-01,
          4.37769383e-01, 2.96008468e-01, 4.35106307e-01, 3.70499223e-01,
          3.70499223e-01, 3.70499223e-01, 2.16233786e-02, 3.70499223e-01,
          1.86930776e-01, 3.70499223e-01, 3.70499223e-01, 3.70499223e-01,
          2.93827891e-01, 3.62316400e-01, 3.62316400e-01, 3.62316400e-01,
          3.62316400e-01, 8.32699612e-02, 3.39812219e-01, 3.62316400e-01,
          3.62316400e-01, 3.98594230e-01, 1.53954536e-01, 1.31598979e-01,
          1.88059390e-01, 3.98594230e-01, 3.53899181e-01, 3.98594230e-01,
          3.98594230e-01, 3.98594230e-01, 4.18274730e-01, 4.18274730e-01,
          4.18274730e-01, 4.33335407e-03, 0., 0., 3.47899258e-01,
          4.18274730e-01, 4.18274730e-01, 5.02269804e-01, 1.55969593e-03,
          6.53981194e-02, 1.86543211e-01, 4.40260291e-01, 0.,
          7.24698827e-02, 5.02269804e-01, 5.02269804e-01, 5.40934741e-01,
          3.15659791e-01, 1.48545085e-02, 2.07058806e-02, 5.40934741e-01,
          1.19342297e-01, 3.57846804e-02, 3.08760908e-02, 5.40934741e-01 ]
      - [ 4.69089121e-01, 1.11861482e-01, 5.31128049e-02, 3.57822049e-04,
          7.44673550e-01, 2.61399020e-02, 9.18353796e-02, 1.70455322e-01,
          4.05558348e-01, 1.34022534e-01, 5.44796824e-01, 5.44796824e-01,
          2.80528456e-01, 5.44796824e-01, 0., 4.59695347e-02,
          6.28235266e-02, 3.78239937e-02, 7.58128911e-02, 7.85258859e-02,
          2.32148618e-01, 4.08318967e-01, 4.08318967e-01, 4.03501481e-01,
          4.08318967e-01, 4.08318967e-01, 3.16864759e-01, 3.77100199e-01,
          3.77100199e-01, 3.77100199e-01, 2.80070454e-02, 3.77100199e-01,
          4.02458664e-03, 3.77100199e-01, 3.77100199e-01, 3.77100199e-01,
          3.63148123e-01, 3.63148123e-01, 3.63148123e-01, 3.63148123e-01,
          3.63148123e-01, 1.19589224e-01, 2.42763922e-01, 3.63148123e-01,
          3.63148123e-01, 3.68310928e-01, 1.54048756e-01, 1.51719406e-01,
          3.68310928e-01, 3.68310928e-01, 3.68310928e-01, 3.68310928e-01,
          3.68310928e-01, 3.68310928e-01, 4.28540677e-01, 4.28540677e-01,
          4.28540677e-01, 1.24788797e-02, 0., 0., 2.78079093e-01,
          4.28540677e-01, 4.28540677e-01, 5.27690530e-01, 2.23948155e-03,
          3.30061503e-02, 2.54277229e-01, 3.35383654e-01, 5.16160913e-02,
          5.13211824e-02, 5.04265845e-01, 5.27690530e-01, 5.55812597e-01,
          2.35107735e-01, 3.42824161e-02, 1.18494362e-01, 5.08185029e-01,
          2.13391647e-01, 3.41134444e-02, 3.39229070e-02, 5.55812597e-01 ]
      - [ 2.59977758e-01, 1.25313997e-01, 2.72789806e-01, 3.29759657e-01,
          7.23358810e-01, 3.58045697e-01, 1.78546682e-01, 9.11498666e-02,
          1.86279252e-01, 5.60647994e-02, 3.79377365e-01, 4.14214104e-01,
          4.14214104e-01, 4.14214104e-01, 3.42158854e-01, 4.14214104e-01,
          1.94327682e-01, 8.75366703e-02, 1.87648013e-01, 3.67597560e-03,
          3.18259150e-02, 4.87375706e-01, 5.81851423e-01, 1.79669544e-01,
          4.79476333e-01, 1.86091185e-01, 2.91645408e-01, 3.72914463e-01,
          3.72914463e-01, 3.72914463e-01, 1.40185595e-01, 3.72914463e-01,
          5.62674254e-02, 3.72914463e-01, 3.72914463e-01, 3.72914463e-01,
          1.86399132e-01, 2.95449317e-01, 4.02592570e-01, 4.02592570e-01,
          4.02592570e-01, 4.31459174e-02, 3.60290259e-01, 3.42505515e-01,
          3.72451752e-01, 4.24763173e-01, 8.37104246e-02, 4.66196425e-02,
          1.26200229e-01, 4.24763173e-01, 3.75120223e-01, 4.24763173e-01,
          3.28997701e-01, 4.24763173e-01, 4.09694761e-01, 4.09694761e-01,
          4.09694761e-01, 2.61809099e-02, 1.09582944e-02, 0.,
          3.94781739e-01, 4.09694761e-01, 4.09694761e-01, 4.99543667e-01,
          2.29122918e-02, 4.88711745e-02, 1.09754786e-01, 4.78846461e-01,
          0., 4.61047590e-02, 4.99543667e-01, 4.99543667e-01,
          4.95039076e-01, 4.95039076e-01, 1.31015219e-02, 1.60639465e-03,
          4.95039076e-01, 1.01514384e-01, 2.46428605e-02, 6.09454289e-02,
          4.95039076e-01 ]
      - [ 3.77834737e-01, 6.01064004e-02, 5.86955696e-02, 7.61033222e-03,
          8.13818455e-01, 2.85577532e-02, 7.77169988e-02, 9.94664505e-02,
          4.03675258e-01, 2.36398965e-01, 5.08083820e-01, 5.13169467e-01,
          3.87854964e-01, 5.13169467e-01, 0., 2.37268321e-02,
          2.49932483e-02, 5.03632985e-02, 2.12317202e-02, 5.91228716e-02,
          2.91408002e-01, 4.15439904e-01, 4.15439904e-01, 4.15439904e-01,
          4.15439904e-01, 4.15439904e-01, 2.09841534e-01, 3.77552569e-01,
          3.68992537e-01, 3.77552569e-01, 6.91539496e-02, 3.77552569e-01,
          3.83673888e-03, 3.77552569e-01, 3.77552569e-01, 3.77552569e-01,
          3.78716677e-01, 3.78716677e-01, 3.78716677e-01, 3.78716677e-01,
          3.78716677e-01, 0., 1.79498792e-01, 3.21619183e-01,
          3.78716677e-01, 3.83574009e-01, 1.53524727e-01, 1.50634080e-01,
          1.92532226e-01, 3.91313881e-01, 3.91313881e-01, 3.91313881e-01,
          3.91313881e-01, 3.91313881e-01, 4.33225632e-01, 3.99551421e-01,
          4.33225632e-01, 4.64050248e-02, 1.67711824e-02, 0.,
          2.87851512e-01, 4.33225632e-01, 4.33225632e-01, 5.07793069e-01,
          7.26627931e-03, 4.00946513e-02, 1.81251422e-01, 5.07793069e-01,
          0., 3.53287868e-02, 4.30820823e-01, 5.07793069e-01,
          5.49169540e-01, 2.60570914e-01, 1.85941327e-02, 6.48012897e-03,
          5.49169540e-01, 1.41382724e-01, 3.79403979e-02, 6.38506981e-03,
          5.49169540e-01 ]
      - [ 3.69025439e-01, 1.28113493e-01, 2.35705912e-01, 1.39252499e-01,
          7.89333701e-01, 1.10768266e-02, 6.54034466e-02, 1.04503676e-01,
          3.55263501e-01, 8.06263536e-02, 3.18638980e-01, 4.33261603e-01,
          4.33261603e-01, 4.33261603e-01, 1.97479382e-01, 4.33261603e-01,
          2.83011436e-01, 1.32983550e-01, 3.16716582e-01, 2.94186315e-03,
          4.34834845e-02, 4.89861041e-01, 5.27071297e-01, 1.69791311e-01,
          3.10964376e-01, 2.50262678e-01, 4.31972206e-01, 3.75595450e-01,
          3.75595450e-01, 3.75595450e-01, 9.35001075e-02, 3.75595450e-01,
          1.31632714e-03, 3.75595450e-01, 3.75595450e-01, 3.75595450e-01,
          2.84722537e-01, 2.52496839e-01, 3.84923577e-01, 3.84923577e-01,
          3.84923577e-01, 1.68794189e-02, 3.31989914e-01, 3.84923577e-01,
          3.84923577e-01, 4.24798250e-01, 1.27853811e-01, 4.93482947e-02,
          9.96915847e-02, 4.24798250e-01, 4.24798250e-01, 3.33242893e-01,
          3.66293907e-01, 4.24798250e-01, 4.18944567e-01, 4.18944567e-01,
          4.18944567e-01, 4.54978757e-02, 7.25936191e-03, 0.,
          3.40763062e-01, 4.18944567e-01, 4.18944567e-01, 5.08659124e-01,
          6.26818975e-03, 4.18644398e-02, 1.62268043e-01, 5.08659124e-01,
          0., 5.52946366e-02, 4.33055729e-01, 5.08659124e-01,
          5.39545953e-01, 3.18872184e-01, 7.00503215e-03, 2.39667692e-03,
          5.39545953e-01, 1.37224466e-01, 2.67561488e-02, 1.32527319e-03,
          5.39545953e-01 ]
      - [ 4.89148200e-01, 2.11655736e-01, 1.75088301e-01, 2.19348352e-02,
          4.89148200e-01, 2.29310662e-01, 3.42210680e-01, 1.78016379e-01,
          4.89148200e-01, 4.62521076e-01, 4.62521076e-01, 4.62521076e-01,
          1.58532903e-01, 4.62521076e-01, 9.79628339e-02, 2.25667119e-01,
          1.10043585e-01, 2.04725876e-01, 1.49673536e-01, 1.78984746e-01,
          3.87642711e-01, 3.87642711e-01, 3.87642711e-01, 2.00220823e-01,
          3.87642711e-01, 3.87642711e-01, 3.87642711e-01, 2.34501705e-01,
          4.46839631e-01, 4.46839631e-01, 1.24784783e-01, 6.36483135e-04,
          7.02534197e-03, 4.46839631e-01, 4.46839631e-01, 3.55333477e-01,
          3.57932687e-01, 3.57932687e-01, 3.57932687e-01, 3.57932687e-01,
          3.57932687e-01, 4.03155060e-03, 3.54479671e-01, 3.57932687e-01,
          3.19463521e-01, 3.17606628e-01, 3.19039255e-01, 1.86674654e-01,
          1.15740478e-01, 3.86438578e-01, 3.86438578e-01, 3.86438578e-01,
          3.86438578e-01, 3.84573698e-01, 4.31098908e-01, 4.31098908e-01,
          4.31098908e-01, 7.39299282e-02, 3.44416563e-04, 0.,
          2.46975020e-01, 4.31098908e-01, 4.31098908e-01, 4.68552411e-01,
          6.98040379e-03, 9.22508687e-02, 3.27505589e-01, 4.68552411e-01,
          1.78924249e-03, 3.65026928e-02, 4.68552411e-01, 4.68552411e-01,
          4.73699391e-01, 4.73699391e-01, 1.84576921e-02, 8.43003578e-03,
          4.73699391e-01, 3.04241478e-01, 6.82485923e-02, 8.46856460e-03,
          4.73699391e-01 ]
      - [ 2.96391189e-01, 1.28463089e-01, 2.64535069e-01, 2.35787854e-01,
          7.86539733e-01, 1.48722589e-01, 1.54487967e-01, 1.02049842e-01,
          2.95264423e-01, 3.53723057e-02, 3.63711149e-01, 4.43275511e-01,
          4.43275511e-01, 4.43275511e-01, 1.57662049e-01, 4.43275511e-01,
          2.14172632e-01, 7.30424970e-02, 2.09085718e-01, 4.16091783e-03,
          8.93593356e-02, 4.87749964e-01, 4.87749964e-01, 2.50080317e-01,
          4.87749964e-01, 2.68383116e-01, 3.08446795e-01, 3.93584251e-01,
          3.93584251e-01, 3.93584251e-01, 8.45859796e-02, 2.43407696e-01,
          1.46481507e-02, 3.93584251e-01, 3.93584251e-01, 3.93584251e-01,
          1.81755736e-01, 2.31137946e-01, 4.05374259e-01, 4.05374259e-01,
          4.05374259e-01, 1.68075208e-02, 2.95916438e-01, 4.05374259e-01,
          4.05374259e-01, 4.01806921e-01, 1.85731918e-01, 1.14368930e-01,
          1.48372486e-01, 4.01806921e-01, 4.01806921e-01, 4.01806921e-01,
          3.45182598e-01, 4.01806921e-01, 4.28400278e-01, 4.28400278e-01,
          4.28400278e-01, 1.63153019e-02, 6.02219580e-03, 0.,
          2.78898120e-01, 4.28400278e-01, 4.28400278e-01, 5.49584150e-01,
          1.50624476e-03, 1.85028054e-02, 1.35641545e-01, 3.65590274e-01,
          1.75521208e-03, 3.52030881e-02, 4.86605018e-01, 5.49584150e-01,
          5.48974693e-01, 4.33233947e-01, 1.31137418e-02, 8.46940372e-03,
          4.35239404e-01, 1.17988206e-01, 2.11512316e-02, 5.83773851e-03,
          5.48974693e-01 ]
      - [ 4.36427563e-01, 8.44705477e-02, 3.31485160e-02, 5.03325602e-04,
          6.22209251e-01, 4.65721190e-01, 8.14053863e-02, 7.03136697e-02,
          4.23642308e-01, 4.14483368e-01, 1.85673624e-01, 6.97651058e-02,
          5.60407154e-02, 8.03557098e-01, 1.23800546e-01, 4.51796055e-02,
          5.17758802e-02, 3.34587872e-01, 4.03583884e-01, 1.56369731e-02,
          4.47402336e-02, 5.16299546e-01, 5.16299546e-01, 1.82820410e-01,
          3.08927763e-02, 8.83718356e-02, 5.04380882e-01, 3.51148188e-01,
          3.51148188e-01, 3.51148188e-01, 3.51148188e-01, 3.51148188e-01,
          1.00255944e-01, 3.51148188e-01, 3.51148188e-01, 3.51148188e-01,
          3.59964877e-01, 3.59964877e-01, 3.59964877e-01, 3.59964877e-01,
          3.59964877e-01, 8.66431743e-03, 2.98840076e-01, 3.59964877e-01,
          3.59964877e-01, 4.83607382e-01, 1.73242465e-01, 5.22208884e-02,
          1.76573396e-01, 4.83607382e-01, 1.77308783e-01, 3.66776228e-01,
          2.52309531e-01, 4.83607382e-01, 4.20454800e-01, 4.20454800e-01,
          4.20454800e-01, 3.10796231e-01, 4.31578979e-02, 0.,
          1.15895033e-01, 4.20454800e-01, 4.20454800e-01, 5.37584007e-01,
          3.63114569e-03, 2.44699046e-02, 1.25047147e-01, 3.27715188e-01,
          0., 6.32120669e-02, 5.37584007e-01, 5.37584007e-01,
          5.28110623e-01, 3.93968195e-01, 4.86826105e-03, 1.13480333e-02,
          5.28110623e-01, 3.56408618e-02, 3.39997709e-02, 1.52930813e-02,
          5.28110623e-01 ]
      - [ 4.48338598e-01, 7.02689067e-02, 3.70909236e-02, 0.,
          6.91430926e-01, 3.97632688e-01, 9.29883495e-02, 5.93128465e-02,
          3.70706707e-01, 4.04006392e-01, 1.35301411e-01, 5.52799702e-02,
          8.90283287e-03, 8.42917562e-01, 2.95106880e-03, 4.82138135e-02,
          5.77209517e-02, 3.01248521e-01, 3.94598186e-01, 1.25750201e-02,
          3.46345752e-02, 5.56213617e-01, 5.56213617e-01, 6.06668927e-03,
          2.25114319e-02, 7.03312457e-02, 4.61674243e-01, 3.49766284e-01,
          3.49766284e-01, 3.49766284e-01, 3.44210356e-01, 3.49766284e-01,
          1.47205994e-01, 3.49766284e-01, 3.49766284e-01, 3.49766284e-01,
          3.52897048e-01, 3.48819703e-01, 3.52897048e-01, 3.52897048e-01,
          3.52897048e-01, 5.51793538e-02, 3.52897048e-01, 3.52897048e-01,
          3.52897048e-01, 4.65978295e-01, 1.54323399e-01, 5.85048608e-02,
          1.93615749e-01, 4.65978295e-01, 4.36882555e-01, 2.14805573e-01,
          2.05438510e-01, 4.65978295e-01, 4.20701474e-01, 4.20701474e-01,
          4.20701474e-01, 1.93143323e-01, 2.92735808e-02, 2.89859474e-02,
          2.68043607e-01, 4.20701474e-01, 4.20701474e-01, 5.20818532e-01,
          6.25024736e-03, 4.98469211e-02, 1.18668690e-01, 3.66402328e-01,
          1.77536905e-02, 1.72831982e-01, 5.20818532e-01, 5.20818532e-01,
          5.34654438e-01, 3.54081303e-01, 9.90916602e-03, 1.19218687e-02,
          5.34654438e-01, 9.89589244e-02, 1.87775381e-02, 3.65423299e-02,
          5.34654438e-01 ]
      - [ 3.81007075e-01, 9.25388560e-02, 9.55446344e-03, 3.51779580e-01,
          5.82028747e-01, 5.46932161e-01, 6.85447082e-02, 6.31789789e-02,
          2.64643520e-01, 3.40872586e-01, 1.14745840e-01, 3.81455086e-02,
          4.16580975e-01, 5.45452595e-01, 5.45452595e-01, 6.24400899e-02,
          3.94355468e-02, 2.99510330e-01, 2.92577595e-01, 4.49405536e-02,
          6.17846884e-02, 5.17883778e-01, 5.17883778e-01, 4.67622280e-01,
          3.71108465e-02, 1.00061290e-01, 3.70029569e-01, 3.80133718e-01,
          3.58301550e-01, 2.56772101e-01, 3.80133718e-01, 3.80133718e-01,
          1.38501167e-01, 2.45356128e-01, 3.80133718e-01, 3.80133718e-01,
          3.88542444e-01, 3.13196152e-01, 2.45947123e-01, 3.88542444e-01,
          3.88542444e-01, 2.48915464e-01, 1.44053459e-01, 3.88542444e-01,
          3.88542444e-01, 4.18113321e-01, 3.11484367e-01, 8.80898684e-02,
          2.94845700e-01, 4.18113321e-01, 4.18113321e-01, 1.64478943e-01,
          2.78888077e-01, 4.18113321e-01, 4.09464896e-01, 4.09464896e-01,
          2.45239824e-01, 3.63460690e-01, 3.60036701e-01, 0.,
          5.82310334e-02, 4.09464896e-01, 4.09464896e-01, 5.16682506e-01,
          7.93036968e-02, 6.96116537e-02, 1.74281269e-01, 3.84236038e-01,
          5.10452315e-02, 4.69655097e-02, 5.16682506e-01, 5.16682506e-01,
          5.09193122e-01, 4.96820807e-01, 1.96022615e-02, 3.97373512e-02,
          4.36529636e-01, 1.32103816e-01, 1.55302836e-02, 1.38976514e-01,
          5.09193122e-01 ]
      - [ 3.81616265e-01, 7.17247054e-02, 3.71572673e-02, 7.37954397e-04,
          6.43332899e-01, 5.28892040e-01, 1.92964464e-01, 6.23140633e-02,
          3.26646894e-01, 3.87162715e-01, 9.56846327e-02, 8.37908164e-02,
          7.52719864e-03, 7.43999839e-01, 4.21145231e-01, 3.31864581e-02,
          3.18294950e-02, 3.05666864e-01, 3.58629823e-01, 1.02362782e-02,
          6.27190843e-02, 5.71347058e-01, 5.71347058e-01, 6.53966963e-02,
          1.93229429e-02, 6.50458485e-02, 4.47084874e-01, 3.41218472e-01,
          3.41218472e-01, 3.41218472e-01, 3.41218472e-01, 3.04840982e-01,
          2.97745347e-01, 3.41218472e-01, 3.41218472e-01, 3.41218472e-01,
          3.74011964e-01, 2.90316492e-01, 3.74011964e-01, 3.73727709e-01,
          3.74011964e-01, 1.37839243e-01, 2.32126594e-01, 3.74011964e-01,
          3.74011964e-01, 4.74119723e-01, 1.96368009e-01, 8.89548361e-02,
          1.80583194e-01, 4.74119723e-01, 4.36027020e-01, 1.28124073e-01,
          1.87821671e-01, 4.74119723e-01, 4.15372461e-01, 4.15372461e-01,
          4.15372461e-01, 3.36672306e-01, 1.20839598e-02, 2.39678752e-02,
          1.38240859e-01, 4.15372461e-01, 4.15372461e-01, 5.39552152e-01,
          1.75925463e-01, 1.60706192e-02, 8.08257237e-02, 2.84115970e-01,
          1.34633873e-02, 5.11705428e-02, 5.39552152e-01, 5.39552152e-01,
          5.23054063e-01, 5.08056164e-01, 6.24479679e-03, 1.83310863e-02,
          4.19950396e-01, 8.14870819e-02, 4.90397541e-03, 7.80168772e-02,
          5.23054063e-01 ]
      - [ 4.33686912e-01, 1.18726850e-01, 5.79626486e-02, 7.83947706e-02,
          6.77127659e-01, 3.29792529e-01, 1.36533648e-01, 1.50540844e-01,
          4.15915310e-01, 3.01710308e-01, 1.29142106e-01, 6.29339367e-02,
          5.00800610e-01, 7.48415411e-01, 0., 3.48890498e-02,
          8.41039270e-02, 2.48284027e-01, 3.44596088e-01, 2.41115075e-02,
          8.80113393e-02, 5.85385025e-01, 5.85385025e-01, 0.,
          7.66949868e-03, 1.37641460e-01, 4.03392464e-01, 3.75242084e-01,
          3.75242084e-01, 3.75242084e-01, 3.75242084e-01, 9.89604220e-02,
          2.84891408e-02, 3.75242084e-01, 3.75242084e-01, 3.75242084e-01,
          3.61832738e-01, 3.61832738e-01, 3.61832738e-01, 3.61832738e-01,
          3.61832738e-01, 0., 2.82709152e-01, 3.61832738e-01,
          3.61832738e-01, 4.08037007e-01, 1.62754029e-01, 1.19645648e-01,
          3.68040860e-01, 4.08037007e-01, 3.16697627e-01, 2.31066078e-01,
          4.08037007e-01, 4.08037007e-01, 4.33312148e-01, 4.33312148e-01,
          4.33312148e-01, 1.96855679e-01, 1.83864104e-04, 0.,
          1.34619713e-01, 4.33312148e-01, 4.33312148e-01, 5.37211359e-01,
          2.87759141e-03, 2.79445183e-02, 1.95083097e-01, 2.94632554e-01,
          0., 5.64973205e-02, 5.37211359e-01, 5.37211359e-01,
          4.75925297e-01, 4.75925297e-01, 1.34776831e-02, 5.01528978e-02,
          4.75925297e-01, 8.31583813e-02, 3.30908634e-02, 2.80213177e-01,
          4.75925297e-01 ]
      - [ 3.32042545e-01, 6.52574226e-02, 2.34357156e-02, 2.99889266e-01,
          5.85484743e-01, 5.85484743e-01, 9.39860940e-02, 5.70206493e-02,
          3.02474111e-01, 3.49913657e-01, 1.21917807e-01, 5.20737134e-02,
          1.76398948e-01, 8.62532556e-01, 1.95951331e-02, 3.20753381e-02,
          3.22793089e-02, 2.71743178e-01, 3.19559008e-01, 1.14308633e-02,
          8.26501548e-02, 5.86088836e-01, 5.96111357e-01, 0.,
          3.02938949e-02, 5.52660339e-02, 4.26787198e-01, 3.50998282e-01,
          3.50998282e-01, 3.50998282e-01, 3.50998282e-01, 3.50998282e-01,
          1.04377449e-01, 3.50998282e-01, 3.50998282e-01, 3.50998282e-01,
          3.69149238e-01, 3.39776665e-01, 3.69149238e-01, 3.69149238e-01,
          3.69149238e-01, 1.33603846e-03, 2.51465857e-01, 3.69149238e-01,
          3.69149238e-01, 4.67271537e-01, 1.98424384e-01, 1.08780347e-01,
          1.92820355e-01, 4.67271537e-01, 3.67179751e-01, 2.74717242e-01,
          2.04031810e-01, 4.67271537e-01, 4.27630633e-01, 4.27630633e-01,
          4.27630633e-01, 1.75772935e-01, 1.96181282e-01, 0.,
          1.09568834e-01, 4.27630633e-01, 4.27630633e-01, 5.41476786e-01,
          1.73995476e-02, 6.09436333e-02, 1.23579241e-01, 3.01954448e-01,
          0., 6.73500448e-02, 5.41476786e-01, 5.41476786e-01,
          5.37089288e-01, 4.10165787e-01, 1.55571494e-02, 1.41482940e-02,
          4.91749257e-01, 8.01803470e-02, 1.91983078e-02, 2.03339458e-02,
          5.37089288e-01 ]
      - [ 4.18850213e-01, 9.65587795e-02, 2.79322956e-02, 3.04230805e-02,
          5.89280725e-01, 5.76846182e-01, 8.25532079e-02, 9.90497991e-02,
          3.33199710e-01, 3.63824487e-01, 1.86698496e-01, 2.38613766e-02,
          1.37572557e-01, 8.51547420e-01, 0., 3.99848036e-02,
          5.61237857e-02, 2.73680031e-01, 3.43063504e-01, 2.15346441e-02,
          6.70913160e-02, 5.72956204e-01, 5.72956204e-01, 0.,
          9.62033775e-03, 1.39021814e-01, 4.42316383e-01, 3.50366265e-01,
          3.50366265e-01, 3.50366265e-01, 3.50366265e-01, 3.50366265e-01,
          1.20197304e-01, 3.50366265e-01, 3.50366265e-01, 3.50366265e-01,
          3.59830469e-01, 3.59830469e-01, 3.59830469e-01, 3.59830469e-01,
          3.59830469e-01, 5.34642451e-02, 2.95297831e-01, 3.59830469e-01,
          3.59830469e-01, 4.15194988e-01, 1.74583063e-01, 9.12272632e-02,
          4.15194988e-01, 4.15194988e-01, 1.53041974e-01, 2.67758191e-01,
          4.15194988e-01, 4.15194988e-01, 4.19557869e-01, 4.19557869e-01,
          4.19557869e-01, 2.73010254e-01, 0., 0., 2.02805787e-01,
          4.19557869e-01, 4.19557869e-01, 5.04609227e-01, 4.63196374e-02,
          9.85586941e-02, 2.15004742e-01, 4.07221437e-01, 4.18740883e-02,
          7.34842420e-02, 5.04609227e-01, 5.04609227e-01, 5.12728810e-01,
          3.42250973e-01, 1.96191389e-02, 2.10347950e-01, 5.12728810e-01,
          1.08414099e-01, 6.48073032e-02, 1.68779299e-01, 5.12728810e-01 ]
      - [ 4.34632927e-01, 8.31866339e-02, 3.79213765e-02, 1.11292012e-01,
          5.45268714e-01, 5.45268714e-01, 7.88821653e-02, 7.75470287e-02,
          4.21939760e-01, 3.38535339e-01, 1.22417696e-01, 1.27613228e-02,
          5.24745941e-01, 7.08546579e-01, 1.41169265e-01, 4.05726768e-02,
          6.09146431e-02, 2.45947033e-01, 3.43350083e-01, 1.84337255e-02,
          2.81423517e-02, 4.94345844e-01, 6.38942420e-01, 1.24410813e-04,
          1.29669933e-02, 8.58248100e-02, 4.63077158e-01, 3.43970865e-01,
          3.43970865e-01, 3.43970865e-01, 3.43970865e-01, 3.43970865e-01,
          2.23686635e-01, 3.43970865e-01, 3.43970865e-01, 3.43970865e-01,
          3.55526477e-01, 3.55526477e-01, 3.33732545e-01, 3.55526477e-01,
          3.55526477e-01, 1.66437961e-02, 3.55526477e-01, 3.55526477e-01,
          3.55526477e-01, 4.63091999e-01, 1.27446324e-01, 5.26622273e-02,
          2.45030612e-01, 4.63091999e-01, 2.32223004e-01, 3.21330100e-01,
          3.40257972e-01, 4.63091999e-01, 4.13918227e-01, 4.13918227e-01,
          4.13918227e-01, 3.18424046e-01, 6.35173346e-04, 0.,
          1.94497585e-01, 4.13918227e-01, 4.13918227e-01, 5.19282877e-01,
          5.73721062e-03, 5.54252826e-02, 1.86732993e-01, 3.68564248e-01,
          0., 1.09710008e-01, 5.19282877e-01, 5.19282877e-01,
          5.53212345e-01, 2.46180817e-01, 1.23268925e-02, 5.38264252e-02,
          5.53212345e-01, 9.66595635e-02, 5.55525869e-02, 1.61344428e-02,
          5.53212345e-01 ]
      - [ 2.95536935e-01, 6.50486574e-02, 1.72595009e-02, 0.,
          6.37975335e-01, 6.37975335e-01, 1.14945054e-01, 3.70623097e-02,
          2.70459324e-01, 3.12200248e-01, 9.91330892e-02, 5.44544198e-02,
          1.78207159e-01, 8.79313409e-01, 0., 3.13845538e-02,
          2.73562670e-02, 2.72546023e-01, 2.93959349e-01, 1.23656979e-02,
          9.84675288e-02, 6.08239591e-01, 6.08239591e-01, 0.,
          1.78246312e-02, 7.12119639e-02, 3.90341461e-01, 3.50874931e-01,
          3.50874931e-01, 3.50874931e-01, 3.50874931e-01, 3.50874931e-01,
          1.07650667e-01, 3.50874931e-01, 3.50874931e-01, 3.50874931e-01,
          3.53354931e-01, 3.53354931e-01, 3.53354931e-01, 3.53354931e-01,
          3.53354931e-01, 4.36844816e-03, 3.49903762e-01, 3.53354931e-01,
          3.53354931e-01, 4.03814942e-01, 2.48266399e-01, 1.70983016e-01,
          2.80891597e-01, 4.03814942e-01, 4.03814942e-01, 2.97755122e-01,
          2.92010963e-01, 4.03814942e-01, 4.25657511e-01, 4.25657511e-01,
          4.25657511e-01, 2.41481990e-01, 1.27978638e-01, 0.,
          1.23021089e-01, 4.25657511e-01, 4.25657511e-01, 5.39423645e-01,
          3.66373844e-02, 8.81536677e-02, 1.55631095e-01, 2.90100038e-01,
          1.63329532e-03, 6.46862015e-02, 5.39423645e-01, 5.39423645e-01,
          5.22336602e-01, 4.57297385e-01, 2.37402115e-02, 3.29797678e-02,
          4.64748055e-01, 1.46240786e-01, 2.92204041e-02, 1.04588959e-02,
          5.22336602e-01 ]
      - [ 3.80660683e-01, 1.05909549e-01, 1.56100104e-02, 5.64281421e-04,
          7.07869768e-01, 4.39780593e-01, 6.41282275e-02, 1.01894587e-01,
          3.57196003e-01, 3.48910064e-01, 1.31661370e-01, 5.93494587e-02,
          1.23625272e-04, 7.68683612e-01, 4.16792691e-01, 2.13877354e-02,
          5.55366650e-02, 2.85657674e-01, 3.61141562e-01, 1.18192052e-02,
          5.58984466e-02, 5.80508769e-01, 5.80508769e-01, 9.83591452e-02,
          2.60374174e-02, 7.86730051e-02, 4.12302047e-01, 3.51625562e-01,
          3.51625562e-01, 3.51625562e-01, 3.51625562e-01, 3.51625562e-01,
          8.58054608e-02, 3.51625562e-01, 3.51625562e-01, 3.51625562e-01,
          3.62288952e-01, 3.62288952e-01, 3.62288952e-01, 3.62288952e-01,
          3.62288952e-01, 3.07622869e-02, 2.76877075e-01, 3.62288952e-01,
          3.62288952e-01, 4.48208332e-01, 1.58754155e-01, 5.50304353e-02,
          1.85461372e-01, 4.48208332e-01, 4.48208332e-01, 2.73052484e-01,
          2.34041259e-01, 4.48208332e-01, 4.16101605e-01, 4.16101605e-01,
          4.16101605e-01, 3.22316587e-01, 7.58958310e-02, 0.,
          1.43151551e-01, 4.16101605e-01, 4.16101605e-01, 5.23107111e-01,
          2.60785725e-02, 3.67422029e-02, 1.85957387e-01, 3.61748666e-01,
          0., 7.98770413e-02, 5.23107111e-01, 5.23107111e-01,
          5.40150166e-01, 3.08672190e-01, 6.42256252e-03, 2.13271379e-02,
          5.40150166e-01, 1.50640205e-01, 2.14029625e-02, 1.98508482e-02,
          5.40150166e-01 ]
      - [ 1.80880442e-01, 4.88385826e-01, 4.88385826e-01, 4.88385826e-01,
          4.88385826e-01, 5.73880784e-02, 6.54744804e-02, 2.04913579e-02,
          1.79258343e-02, 0., 1.70452185e-02, 5.11356555e-02, 0.,
          7.02415347e-01, 7.02415347e-01, 5.75191118e-02, 0., 0., 0., 0.,
          0., 0., 7.04599917e-01, 7.04599917e-01, 6.66307332e-03, 0., 0.,
          4.18689251e-01, 4.18689251e-01, 4.18689251e-01, 1.68907136e-01,
          4.18689251e-01, 4.18689251e-01, 2.45497115e-02, 1.49662057e-02,
          2.99929410e-01, 5.00562251e-01, 1.34606048e-01, 3.22553609e-03,
          0., 5.00562251e-01, 5.00562251e-01, 3.41986008e-02, 0.,
          4.73301500e-01, 4.89237785e-01, 1.94035694e-01, 0., 0.,
          4.89237785e-01, 4.89237785e-01, 7.01272581e-03, 0.,
          4.89237785e-01, 5.97876608e-01, 2.48036340e-01, 2.46854424e-02,
          2.65369359e-02, 4.46115792e-01, 1.22792758e-01, 0.,
          4.67368066e-02, 5.97876608e-01, 6.46147430e-01, 3.54838639e-01,
          0., 0., 1.68885067e-01, 6.40574619e-02, 0., 0., 6.46147430e-01,
          6.39998972e-01, 4.17627692e-01, 0., 0., 0., 0., 0., 0.,
          6.39998972e-01 ]
      - [ 2.16082871e-01, 4.61446732e-01, 4.61446732e-01, 4.61446732e-01,
          4.61446732e-01, 2.81189054e-01, 1.21311165e-01, 5.63434847e-02,
          2.92760041e-03, 1.68321989e-02, 6.40264619e-03, 0., 0.,
          7.03707099e-01, 7.03707099e-01, 4.61881980e-02, 0.,
          1.05037773e-02, 3.82651478e-01, 1.93178475e-01, 5.62304705e-02,
          3.33663300e-02, 6.22733772e-01, 6.22733772e-01, 5.95039241e-02,
          0., 1.63192511e-01, 3.98358554e-01, 3.98358554e-01,
          3.98358554e-01, 2.25091681e-01, 3.98358554e-01, 3.98358554e-01,
          1.96164683e-01, 9.29367244e-02, 3.23710948e-01, 4.46184725e-01,
          4.46184725e-01, 0., 0., 4.46184725e-01, 4.46184725e-01,
          1.17904982e-02, 0., 4.46184725e-01, 4.46123451e-01,
          4.46123451e-01, 1.08973477e-02, 2.14287429e-03, 4.46123451e-01,
          4.46123451e-01, 1.70162227e-02, 0., 4.46123451e-01,
          5.46047270e-01, 5.46047270e-01, 2.99053527e-02, 3.33003439e-02,
          2.41466671e-01, 1.19475827e-01, 9.17303488e-02, 1.30559281e-01,
          5.46047270e-01, 5.74755132e-01, 5.74755132e-01, 0., 0.,
          4.94088382e-02, 2.80906670e-02, 0., 0., 5.74755132e-01,
          5.75688422e-01, 5.75688422e-01, 0., 0., 0., 0., 0., 0.,
          5.75688422e-01 ]
      - [ 1.78515837e-01, 4.34771836e-01, 4.34771836e-01, 4.34771836e-01,
          4.34771836e-01, 4.34771836e-01, 1.36426434e-01, 4.74102283e-03,
          4.67231171e-03, 5.86721720e-03, 3.70458625e-02, 1.37835547e-01,
          4.17977780e-01, 6.01384401e-01, 6.01384401e-01, 2.74841011e-01,
          4.15534526e-03, 1.75232883e-03, 2.73483157e-01, 1.57566190e-01,
          5.06056547e-02, 5.11361182e-01, 5.11361182e-01, 5.11361182e-01,
          3.00961077e-01, 9.30527411e-03, 1.32578462e-01, 3.80841285e-01,
          3.80841285e-01, 3.43735009e-01, 3.80841285e-01, 3.80841285e-01,
          3.80841285e-01, 2.06124142e-01, 8.40069205e-02, 3.21398109e-01,
          4.18252677e-01, 4.18252677e-01, 6.44678771e-02, 2.97901511e-01,
          4.18252677e-01, 4.18252677e-01, 1.67960182e-01, 5.77281928e-03,
          4.18252677e-01, 4.42548662e-01, 4.42548662e-01, 2.67338865e-02,
          9.51066017e-02, 4.42548662e-01, 4.42548662e-01, 8.10506865e-02,
          1.91581040e-03, 4.42548662e-01, 5.37082016e-01, 5.37082016e-01,
          6.91964338e-03, 3.97383869e-02, 1.85107291e-01, 5.99039793e-02,
          9.44605693e-02, 2.84362435e-01, 5.37082016e-01, 5.75477064e-01,
          5.75477064e-01, 1.51064955e-02, 0., 1.87456906e-02,
          1.09256431e-02, 2.03984440e-03, 5.36462665e-03, 5.75477064e-01,
          5.75162947e-01, 5.75162947e-01, 4.26542275e-02, 0., 0., 0., 0.,
          0., 5.75162947e-01 ]
      - [ 2.21881330e-01, 4.33208048e-01, 4.33208048e-01, 4.33208048e-01,
          4.33208048e-01, 4.33208048e-01, 7.60474429e-02, 1.44152269e-02,
          4.58706394e-02, 2.42805504e-03, 2.33400855e-02, 7.00202584e-02,
          0., 7.00910330e-01, 7.00910330e-01, 7.06638098e-02, 0.,
          2.42805504e-03, 2.67518580e-01, 6.30627871e-02, 0., 0.,
          6.73687756e-01, 6.73687756e-01, 3.64392661e-02, 0.,
          9.32377726e-02, 4.21231896e-01, 4.21231896e-01, 4.21231896e-01,
          1.20678023e-01, 4.21231896e-01, 4.21231896e-01, 1.19264700e-01,
          3.46526094e-02, 2.80397207e-01, 4.58611012e-01, 3.89633119e-01,
          7.68892001e-03, 0., 4.58611012e-01, 4.58611012e-01,
          4.74313423e-02, 0., 4.58611012e-01, 4.51050192e-01,
          4.26198065e-01, 0., 0., 4.51050192e-01, 4.51050192e-01,
          8.05008039e-03, 0., 4.51050192e-01, 5.43002784e-01,
          5.43002784e-01, 3.54337990e-02, 1.38857337e-02, 2.88463593e-01,
          1.40444756e-01, 5.03518768e-02, 5.56926057e-02, 5.43002784e-01,
          5.74180841e-01, 5.74180841e-01, 0., 0., 5.98311946e-02,
          4.04321402e-02, 9.82704340e-04, 0., 5.74180841e-01,
          6.25582933e-01, 4.59397346e-01, 0., 0., 0., 0., 0., 0.,
          6.25582933e-01 ]
      - [ 4.12802279e-01, 4.56267506e-01, 4.56267506e-01, 4.31352347e-01,
          4.56267506e-01, 7.97147602e-02, 3.67737398e-03, 0.,
          8.97997320e-02, 3.33582871e-02, 5.98633150e-03, 1.79589931e-02,
          0., 7.03688204e-01, 7.03688204e-01, 6.11969130e-03, 0.,
          3.33582871e-02, 2.85568178e-01, 7.42541105e-02, 5.89046888e-02,
          3.24292481e-02, 6.66845679e-01, 6.66845679e-01, 3.97373773e-02,
          0., 1.03986621e-01, 4.26212311e-01, 3.94016385e-01,
          4.26212311e-01, 1.13637596e-01, 4.26212311e-01, 4.26212311e-01,
          3.17356316e-04, 0., 3.17729622e-01, 4.65203255e-01,
          3.56950641e-01, 4.12077717e-02, 0., 4.65203255e-01,
          4.65203255e-01, 3.51591920e-03, 2.39361115e-02, 4.65203255e-01,
          4.57170576e-01, 3.96343976e-01, 3.78832892e-02, 5.27442293e-03,
          4.57170576e-01, 4.57170576e-01, 1.25083784e-02, 2.65687853e-02,
          4.57170576e-01, 5.91422498e-01, 3.52549493e-01, 2.90064141e-02,
          2.52801329e-02, 3.81005883e-01, 1.53611287e-01, 0., 0.,
          5.91422498e-01, 5.72763622e-01, 5.72763622e-01, 1.80061311e-02,
          0., 9.18951109e-02, 3.54948752e-02, 0., 8.79654475e-03,
          5.72763622e-01, 5.75072467e-01, 5.75072467e-01, 3.11651062e-02,
          0., 0., 0., 0., 3.40783782e-02, 5.75072467e-01 ]
      - [ 1.19782627e-01, 4.64726418e-01, 4.64726418e-01, 4.64726418e-01,
          4.64726418e-01, 3.37014705e-01, 5.70696294e-02, 1.70798358e-02,
          0., 0., 0., 0., 0., 7.04571784e-01, 7.04571784e-01,
          1.11275185e-02, 0., 0., 2.36560956e-01, 1.32911116e-01,
          1.92593515e-01, 2.02285349e-01, 6.45261884e-01, 6.45261884e-01,
          1.84332523e-02, 0., 9.40969363e-02, 4.23643887e-01,
          4.23643887e-01, 4.23643887e-01, 2.36314908e-01, 4.23643887e-01,
          4.23643887e-01, 9.14365500e-02, 3.01078632e-02, 1.82443544e-01,
          4.91306305e-01, 3.81126612e-01, 0., 0., 4.91306305e-01,
          4.91306305e-01, 5.57209877e-03, 0., 3.54484022e-01,
          4.45049435e-01, 4.45049435e-01, 6.53186440e-02, 3.02712116e-02,
          4.45049435e-01, 4.45049435e-01, 5.16445981e-03, 0.,
          4.45049435e-01, 5.20098448e-01, 5.20098448e-01, 4.99126352e-02,
          4.16508280e-02, 3.64772171e-01, 2.05361187e-01, 4.96198386e-02,
          3.71265262e-02, 5.20098448e-01, 5.70128262e-01, 5.70128262e-01,
          0., 0., 1.03186466e-01, 9.23059732e-02, 3.09708761e-04, 0.,
          5.70128262e-01, 5.75688422e-01, 5.75688422e-01, 0., 0., 0., 0.,
          0., 0., 5.75688422e-01 ]
      - [ 2.34327033e-01, 4.35647577e-01, 4.35647577e-01, 4.35647577e-01,
          4.35647577e-01, 4.22302246e-01, 2.52437941e-03, 0.,
          5.69052547e-02, 0., 3.08723393e-04, 9.26170032e-04, 0.,
          7.04615295e-01, 7.04615295e-01, 0., 0., 0., 2.36050725e-01,
          5.33173606e-02, 0., 0., 6.80961549e-01, 6.80961549e-01, 0., 0.,
          8.49818960e-02, 4.29796070e-01, 4.29796070e-01, 4.29796070e-01,
          1.09818205e-01, 4.29796070e-01, 4.29796070e-01, 6.68545393e-03,
          1.78437529e-03, 2.44898543e-01, 4.77908909e-01, 2.85721004e-01,
          6.07274051e-05, 0., 4.77908909e-01, 4.77908909e-01,
          1.51334424e-03, 0., 4.77908909e-01, 4.46215838e-01,
          4.46215838e-01, 0., 0., 4.46215838e-01, 4.46215838e-01, 0., 0.,
          4.46215838e-01, 5.38979769e-01, 5.38979769e-01, 2.47258116e-02,
          1.00955004e-02, 3.21764976e-01, 1.36040613e-01, 9.59635479e-04,
          1.91299487e-02, 5.38979769e-01, 5.98809123e-01, 5.20015538e-01,
          0., 0., 6.86391070e-02, 4.18141931e-02, 4.89244761e-04, 0.,
          5.98809123e-01, 5.75688422e-01, 5.75688422e-01, 0., 0., 0., 0.,
          0., 0., 5.75688422e-01 ]
      - [ 3.32236290e-01, 4.59504187e-01, 4.59504187e-01, 4.59504187e-01,
          4.59504187e-01, 1.31538972e-01, 1.37640968e-01, 1.93823688e-02,
          6.18850291e-02, 0., 1.44452658e-02, 4.33357954e-02, 0.,
          7.03877509e-01, 7.03877509e-01, 0., 0., 0., 5.73296733e-02,
          6.33011758e-02, 1.59605324e-01, 1.15060665e-01, 6.88025713e-01,
          6.88025713e-01, 8.36982019e-03, 0., 1.72144901e-02,
          4.24823970e-01, 4.24823970e-01, 4.24823970e-01, 1.76110998e-01,
          4.24823970e-01, 4.24823970e-01, 9.90418792e-02, 5.61987795e-02,
          2.22253725e-01, 5.28887153e-01, 1.92402840e-01, 1.99426734e-03,
          0., 5.28887153e-01, 5.28887153e-01, 0., 0., 3.44282597e-01,
          4.67902333e-01, 3.40254903e-01, 5.98493218e-02, 1.54453591e-02,
          4.67902333e-01, 4.67902333e-01, 1.43969944e-03, 0.,
          4.67902333e-01, 5.39652288e-01, 3.89161140e-01, 6.12577386e-02,
          5.02584279e-02, 4.15376663e-01, 2.55792469e-01, 2.50289794e-02,
          1.25868157e-01, 5.39652288e-01, 6.22551858e-01, 4.23322171e-01,
          0., 0., 1.63190022e-01, 1.13181323e-01, 0., 0., 6.22551858e-01,
          6.43412709e-01, 4.06947970e-01, 0., 0., 3.12336115e-03, 0., 0.,
          0., 6.43412709e-01 ]
      - [ 3.61396909e-01, 4.53550726e-01, 4.53550726e-01, 4.53550726e-01,
          4.53550726e-01, 1.28764614e-01, 7.29724765e-02, 2.05132049e-02,
          1.40366003e-01, 0., 9.89123154e-03, 2.96736974e-02, 0.,
          7.04246342e-01, 7.04246342e-01, 8.11015163e-03, 0., 0.,
          6.63734972e-02, 4.59727272e-02, 5.38946986e-02, 9.45771337e-02,
          6.97190106e-01, 6.97190106e-01, 2.22655144e-02, 0.,
          4.50323783e-02, 4.09817696e-01, 4.09817696e-01, 4.09817696e-01,
          9.37719047e-02, 4.09817696e-01, 4.09817696e-01, 1.08377546e-01,
          5.46841398e-02, 3.64175856e-01, 4.87316191e-01, 2.12617755e-01,
          9.69737943e-04, 0., 4.87316191e-01, 4.87316191e-01,
          4.14428813e-03, 0., 4.87316191e-01, 4.62108612e-01,
          3.74447495e-01, 2.71861609e-02, 1.43356370e-02, 4.62108612e-01,
          4.62108612e-01, 7.16021191e-03, 0., 4.62108612e-01,
          5.24509847e-01, 3.62591565e-01, 8.00903291e-02, 2.92466767e-02,
          4.77211744e-01, 2.41932347e-01, 7.61145875e-02, 1.17228381e-01,
          5.24509847e-01, 6.24499857e-01, 4.24225420e-01, 0., 0.,
          1.62258253e-01, 8.64286199e-02, 0., 0., 6.24499857e-01,
          6.07019603e-01, 5.06945372e-01, 0., 0., 0., 0., 0., 0.,
          6.07019603e-01 ]
      - [ 4.14401323e-01, 6.95682764e-02, 2.74921414e-02, 1.39824301e-01,
          5.81612527e-01, 5.58962107e-01, 5.72958924e-02, 5.25351651e-02,
          3.74917299e-01, 2.31852025e-01, 7.26589113e-02, 4.67415713e-02,
          5.17116189e-01, 6.14261925e-01, 4.84767348e-01, 5.65497242e-02,
          8.33100677e-02, 2.06839889e-01, 3.56977016e-01, 3.75382788e-02,
          8.90067220e-02, 5.62719405e-01, 6.07833564e-01, 1.21186003e-01,
          5.54799661e-02, 8.48694891e-02, 3.82211298e-01, 4.55226630e-01,
          2.41142944e-01, 2.38660082e-01, 2.88205475e-01, 4.55226630e-01,
          1.74120173e-01, 1.80810973e-01, 3.35525870e-01, 4.55226630e-01,
          3.59660417e-01, 3.10547292e-01, 3.32087874e-01, 3.59660417e-01,
          3.59660417e-01, 1.61745876e-01, 3.41679394e-01, 3.59660417e-01,
          3.59660417e-01, 4.00475800e-01, 2.43130043e-01, 1.70579821e-01,
          3.33944112e-01, 4.00475800e-01, 2.81341851e-01, 2.74944097e-01,
          4.00475800e-01, 4.00475800e-01, 4.85811949e-01, 2.13639662e-01,
          1.92364138e-02, 6.31602257e-02, 4.85811949e-01, 1.34859830e-02,
          3.01944371e-02, 4.85811949e-01, 4.85811949e-01, 5.52527606e-01,
          3.51046473e-01, 2.10866407e-02, 7.90033191e-02, 3.15372646e-01,
          2.91066580e-02, 4.56100404e-02, 3.89360845e-01, 5.52527606e-01,
